{"learner":{"attributes":{},"feature_names":["minutes_since_release","tickets","total_amount","ip_purchase_count_24h","user_purchase_count_30d","user_account_age_days","same_card_purchase_count_24h"],"feature_types":[],"gradient_booster":{"model":{"cats":{"enc":[],"feature_segments":[],"sorted_idx":[]},"gbtree_model_param":{"num_parallel_tree":"1","num_trees":"120"},"iteration_indptr":[0,1,2,3,4,5,6,7,8,9,10,11,12,13,14,15,16,17,18,19,20,21,22,23,24,25,26,27,28,29,30,31,32,33,34,35,36,37,38,39,40,41,42,43,44,45,46,47,48,49,50,51,52,53,54,55,56,57,58,59,60,61,62,63,64,65,66,67,68,69,70,71,72,73,74,75,76,77,78,79,80,81,82,83,84,85,86,87,88,89,90,91,92,93,94,95,96,97,98,99,100,101,102,103,104,105,106,107,108,109,110,111,112,113,114,115,116,117,118,119,120],"tree_info":[0,0,0,0,0,0,0,0,0,0,0,0,0,0,0,0,0,0,0,0,0,0,0,0,0,0,0,0,0,0,0,0,0,0,0,0,0,0,0,0,0,0,0,0,0,0,0,0,0,0,0,0,0,0,0,0,0,0,0,0,0,0,0,0,0,0,0,0,0,0,0,0,0,0,0,0,0,0,0,0,0,0,0,0,0,0,0,0,0,0,0,0,0,0,0,0,0,0,0,0,0,0,0,0,0,0,0,0,0,0,0,0,0,0,0,0,0,0,0,0],"trees":[{"base_weights":[2.3787221E-2,-8.9361966E-1,1.3776407E0,-9.8471835E-2,1.4254858E-1],"categories":[],"categories_nodes":[],"categories_segments":[],"categories_sizes":[],"default_left":[0,0,0,0,0],"id":0,"left_children":[1,3,-1,-1,-1],"loss_changes":[5.8690753E2,1.0622021E1,0E0,0E0,0E0],"parents":[2147483647,0,0,1,1],"right_children":[2,4,-1,-1,-1],"split_conditions":[1E1,2.8E1,1.3776407E0,-9.8471835E-2,1.4254858E-1],"split_indices":[1,3,0,0,0],"split_type":[0,0,0,0,0],"sum_hessian":[4.454237E1,4.263341E1,1.9089588E0,4.1575634E1,1.057778E0],"tree_param":{"num_deleted":"0","num_feature":"7","num_nodes":"5","size_leaf_vector":"1"}},{"base_weights":[-8.3621375E-2,4.184515E0,-9.349714E-1,-6.856401E-2,6.0417275E0,-9.834983E-2,4.8211172E-2,1.744851E0,8.193565E0,3.4065315E-1,-5.657489E-2,2.4781823E-1,9.4066334E-1],"categories":[],"categories_nodes":[],"categories_segments":[],"categories_sizes":[],"default_left":[0,0,0,0,0,0,0,0,0,0,0,0,0],"id":1,"left_children":[1,3,5,-1,7,-1,-1,9,11,-1,-1,-1,-1],"loss_changes":[1.7622073E2,7.7119995E1,3.248993E0,0E0,4.065219E1,0E0,0E0,1.4419423E1,2.266693E0,0E0,0E0,0E0,0E0],"parents":[2147483647,0,0,1,1,2,2,4,4,7,7,8,8],"right_children":[2,4,6,-1,8,-1,-1,10,12,-1,-1,-1,-1],"split_conditions":[2.6E1,9E0,3.1E1,-6.856401E-2,2.5E1,-9.834983E-2,4.8211172E-2,1E1,3.3E1,3.4065315E-1,-5.657489E-2,2.4781823E-1,9.4066334E-1],"split_indices":[5,1,3,0,3,0,0,5,4,0,0,0,0],"split_type":[0,0,0,0,0,0,0,0,0,0,0,0,0],"sum_hessian":[4.6419815E1,7.068354E0,3.935146E1,2.125498E0,4.942856E0,3.8344357E1,1.0071034E0,2.2536142E0,2.689242E0,1.0349895E0,1.2186246E0,1.0036131E0,1.6856289E0],"tree_param":{"num_deleted":"0","num_feature":"7","num_nodes":"13","size_leaf_vector":"1"}},{"base_weights":[1.2386229E-2,-9.788703E-2,3.0204866E0,5.879852E-1,1.3555527E0,-3.5871765E-1,3.6622357E-1,-8.0842316E-2,6.544927E-2],"categories":[],"categories_nodes":[],"categories_segments":[],"categories_sizes":[],"default_left":[0,0,0,0,0,0,0,0,0],"id":2,"left_children":[1,-1,3,-1,5,7,-1,-1,-1],"loss_changes":[1.4200594E2,0E0,4.8218872E1,0E0,3.5949387E1,3.233618E0,0E0,0E0,0E0],"parents":[2147483647,0,0,2,2,4,4,5,5],"right_children":[2,-1,4,-1,6,8,-1,-1,-1],"split_conditions":[9E0,-9.788703E-2,8E0,5.879852E-1,3.2E1,1.2E1,3.6622357E-1,-8.0842316E-2,6.544927E-2],"split_indices":[1,0,5,0,3,1,0,0,0],"split_type":[0,0,0,0,0,0,0,0,0],"sum_hessian":[4.563268E1,3.4829826E1,1.0802853E1,3.0438118E0,7.7590404E0,4.935549E0,2.8234916E0,3.558329E0,1.3772197E0],"tree_param":{"num_deleted":"0","num_feature":"7","num_nodes":"9","size_leaf_vector":"1"}},{"base_weights":[-3.5745177E-2,3.5977256E0,-6.244967E-1,6.72582E-2,4.1867437E0,-9.319265E-1,1.7847109E0,1.4795779E-1,4.7591552E-1,-9.832396E-2,2.2583311E-2,-5.99819E-2,2.901388E0,9.422933E-2,3.92733E-1],"categories":[],"categories_nodes":[],"categories_segments":[],"categories_sizes":[],"default_left":[0,0,0,0,0,0,0,0,0,0,0,0,0,0,0],"id":3,"left_children":[1,3,5,-1,7,9,11,-1,-1,-1,-1,-1,13,-1,-1],"loss_changes":[1.0153001E2,8.589287E0,3.1876026E1,0E0,1.2002563E0,2.4101982E0,1.4945549E1,0E0,0E0,0E0,0E0,0E0,3.4322186E0,0E0,0E0],"parents":[2147483647,0,0,1,1,2,2,4,4,5,5,6,6,12,12],"right_children":[2,4,6,-1,8,10,12,-1,-1,-1,-1,-1,14,-1,-1],"split_conditions":[8E0,8E0,1.7E1,6.72582E-2,2E1,2.2E3,2.5E1,1.4795779E-1,4.7591552E-1,-9.832396E-2,2.2583311E-2,-5.99819E-2,4.2E1,9.422933E-2,3.92733E-1],"split_indices":[5,6,6,0,3,2,3,0,0,0,0,0,4,0,0],"split_type":[0,0,0,0,0,0,0,0,0,0,0,0,0,0,0],"sum_hessian":[4.5411144E1,5.61953E0,3.9791615E1,1.3009094E0,4.3186207E0,3.5832363E1,3.95925E0,1.3794513E0,2.9391694E0,3.4455975E1,1.3763868E0,1.4103882E0,2.5488617E0,1.5353982E0,1.0134635E0],"tree_param":{"num_deleted":"0","num_feature":"7","num_nodes":"15","size_leaf_vector":"1"}},{"base_weights":[-1.7084032E-2,-7.0764285E-1,3.0660274E0,1.2759405E0,-9.548871E-1,3.6511738E0,1.8930992E-2,-2.1189524E-2,1.9707201E-1,-9.810636E-2,-1.5515754E-2,1.0565994E-1,4.10024E0,9.169712E-2,4.624304E-1],"categories":[],"categories_nodes":[],"categories_segments":[],"categories_sizes":[],"default_left":[0,0,0,0,0,0,0,0,0,0,0,0,0,0,0],"id":4,"left_children":[1,3,5,7,9,11,-1,-1,-1,-1,-1,-1,13,-1,-1],"loss_changes":[9.810588E1,1.9671717E1,1.3504501E1,5.1708875E0,5.6014633E-1,3.769043E0,0E0,0E0,0E0,0E0,0E0,0E0,5.0685577E0,0E0,0E0],"parents":[2147483647,0,0,1,1,2,2,3,3,4,4,5,5,12,12],"right_children":[2,4,6,8,10,12,-1,-1,-1,-1,-1,-1,14,-1,-1],"split_conditions":[1.7E1,7E0,2.6E1,2.9E1,2.2E3,2.5E1,1.8930992E-2,-2.1189524E-2,1.9707201E-1,-9.810636E-2,-1.5515754E-2,1.0565994E-1,1.62E3,9.169712E-2,4.624304E-1],"split_indices":[6,5,5,3,2,4,0,0,0,0,0,0,2,0,0],"split_type":[0,0,0,0,0,0,0,0,0,0,0,0,0,0,0],"sum_hessian":[4.4060158E1,3.66269E1,7.4332576E0,3.5982575E0,3.3028645E1,5.95313E0,1.4801276E0,1.366654E0,2.2316036E0,3.1762266E1,1.2663765E0,1.3730322E0,4.5800977E0,1.0361346E0,3.5439632E0],"tree_param":{"num_deleted":"0","num_feature":"7","num_nodes":"15","size_leaf_vector":"1"}},{"base_weights":[-4.293252E-2,-7.980487E-1,1.8743517E0,-9.479713E-1,1.6041563E-1,6.977077E-1,2.746819E-1,-7.666935E-3,-9.7886175E-2,-3.8025236E-1,1.8605379E0,4.0268876E-2,-7.472818E-2,3.3535533E-2,2.524385E-1],"categories":[],"categories_nodes":[],"categories_segments":[],"categories_sizes":[],"default_left":[0,0,0,0,0,0,0,0,0,0,0,0,0,0,0],"id":5,"left_children":[1,3,5,7,-1,9,-1,-1,-1,11,13,-1,-1,-1,-1],"loss_changes":[6.477365E1,1.3066397E1,1.1068295E1,7.5403214E-1,0E0,9.138364E0,0E0,0E0,0E0,1.5425174E0,2.6012611E0,0E0,0E0,0E0,0E0],"parents":[2147483647,0,0,1,1,2,2,3,3,5,5,9,9,10,10],"right_children":[2,4,6,8,-1,10,-1,-1,-1,12,14,-1,-1,-1,-1],"split_conditions":[2.5E1,2.2E1,1.1E1,1.8E1,1.6041563E-1,1.9E1,2.746819E-1,-7.666935E-3,-9.7886175E-2,2.33E2,3.8E1,4.0268876E-2,-7.472818E-2,3.3535533E-2,2.524385E-1],"split_indices":[3,6,1,0,0,6,0,0,0,0,4,0,0,0,0],"split_type":[0,0,0,0,0,0,0,0,0,0,0,0,0,0,0],"sum_hessian":[4.2707027E1,3.10585E1,1.1648528E1,2.9803808E1,1.2546929E0,5.725962E0,5.922566E0,1.1396835E0,2.8664124E1,3.3206587E0,2.4053035E0,1.0288266E0,2.291832E0,1.1858933E0,1.2194103E0],"tree_param":{"num_deleted":"0","num_feature":"7","num_nodes":"15","size_leaf_vector":"1"}},{"base_weights":[-6.8956376E-3,-9.6531324E-2,1.3219336E0,1.8914903E0,1.8108512E-1,8.2425123E-1,2.569279E0,-6.303534E-1,1.2697075E-1,1.2140129E-1,-2.4996089E-2,7.463083E-2,2.8269204E-1,-7.705309E-2,-6.763523E-3],"categories":[],"categories_nodes":[],"categories_segments":[],"categories_sizes":[],"default_left":[0,0,0,0,0,0,0,0,0,0,0,0,0,0,0],"id":6,"left_children":[1,-1,3,5,7,9,11,13,-1,-1,-1,-1,-1,-1,-1],"loss_changes":[5.5420284E1,0E0,1.150708E1,6.6044884E0,7.141495E0,2.8807907E0,1.1319885E0,3.2502055E-1,0E0,0E0,0E0,0E0,0E0,0E0,0E0],"parents":[2147483647,0,0,2,2,3,3,4,4,5,5,6,6,7,7],"right_children":[2,-1,4,6,8,10,12,14,-1,-1,-1,-1,-1,-1,-1],"split_conditions":[9E0,-9.6531324E-2,1.7E1,1.1E1,3.3E1,8E0,2E1,4.8E1,1.2697075E-1,1.2140129E-1,-2.4996089E-2,7.463083E-2,2.8269204E-1,-7.705309E-2,-6.763523E-3],"split_indices":[1,0,5,1,3,5,3,4,0,0,0,0,0,0,0],"split_type":[0,0,0,0,0,0,0,0,0,0,0,0,0,0,0],"sum_hessian":[4.1513615E1,2.4277231E1,1.7236383E1,1.1057882E1,6.1785016E0,5.155761E0,5.9021215E0,3.7811022E0,2.3973994E0,3.6876204E0,1.4681401E0,1.2133836E0,4.688738E0,2.7313898E0,1.0497124E0],"tree_param":{"num_deleted":"0","num_feature":"7","num_nodes":"15","size_leaf_vector":"1"}},{"base_weights":[4.8946454E-3,-9.6154615E-2,1.1924579E0,3.6222792E-1,2.2196903E0,-1.9344155E-1,1.8144323E-1,1.1378078E0,2.9159924E-1,-8.77441E-2,4.8396867E-2,-1.001005E-2,1.5296753E-1],"categories":[],"categories_nodes":[],"categories_segments":[],"categories_sizes":[],"default_left":[0,0,0,0,0,0,0,0,0,0,0,0,0],"id":7,"left_children":[1,-1,3,5,7,9,-1,11,-1,-1,-1,-1,-1],"loss_changes":[4.8520615E1,0E0,1.5371105E1,9.779262E0,2.9213753E0,4.758858E0,0E0,2.5218763E0,0E0,0E0,0E0,0E0,0E0],"parents":[2147483647,0,0,2,2,3,3,4,4,5,5,7,7],"right_children":[2,-1,4,6,8,10,-1,12,-1,-1,-1,-1,-1],"split_conditions":[9E0,-9.6154615E-2,1.8E1,2.42E3,4.4E1,4.1E1,1.8144323E-1,2.2E1,2.9159924E-1,-8.77441E-2,4.8396867E-2,-1.001005E-2,1.5296753E-1],"split_indices":[1,0,6,2,4,4,0,3,0,0,0,0,0],"split_type":[0,0,0,0,0,0,0,0,0,0,0,0,0],"sum_hessian":[4.0277E1,2.2310778E1,1.7966223E1,1.0683903E1,7.2823205E0,8.354097E0,2.3298056E0,3.8830643E0,3.3992565E0,4.0099025E0,4.3441944E0,1.1126765E0,2.770388E0],"tree_param":{"num_deleted":"0","num_feature":"7","num_nodes":"13","size_leaf_vector":"1"}},{"base_weights":[2.2315161E-2,1.0935297E0,-8.806172E-1,3.4011376E-1,1.6542019E0,-9.6274875E-2,4.4655014E-2,-3.059191E-1,1.2566534E0,2.182877E-1,8.9716893E-1,-8.23801E-2,6.1473455E-2,3.8517218E-2,1.436407E-1,-8.209042E-3,1.3735202E-1],"categories":[],"categories_nodes":[],"categories_segments":[],"categories_sizes":[],"default_left":[0,0,0,0,0,0,0,0,0,0,0,0,0,0,0,0,0],"id":8,"left_children":[1,3,5,7,9,-1,-1,11,13,-1,15,-1,-1,-1,-1,-1,-1],"loss_changes":[4.1107094E1,7.644623E0,2.9451332E0,6.038241E0,2.3962803E0,0E0,0E0,3.5602438E0,9.582758E-2,0E0,2.9917421E0,0E0,0E0,0E0,0E0,0E0,0E0],"parents":[2147483647,0,0,1,1,2,2,3,3,4,4,7,7,8,8,10,10],"right_children":[2,4,6,8,10,-1,-1,12,14,-1,16,-1,-1,-1,-1,-1,-1],"split_conditions":[2.6E1,1.1E1,4.8E1,3.2E1,8E0,-9.6274875E-2,4.4655014E-2,4.6E1,3.8E1,2.182877E-1,3E1,-8.23801E-2,6.1473455E-2,3.8517218E-2,1.436407E-1,-8.209042E-3,1.3735202E-1],"split_indices":[5,1,4,3,5,0,0,4,4,0,3,0,0,0,0,0,0],"split_type":[0,0,0,0,0,0,0,0,0,0,0,0,0,0,0,0,0],"sum_hessian":[4.050402E1,1.8429121E1,2.20749E1,8.548499E0,9.880622E0,2.1046993E1,1.0279068E0,5.4049706E0,3.1435282E0,4.708776E0,5.171846E0,3.5264742E0,1.8784964E0,1.0749131E0,2.0686152E0,1.9633517E0,3.2084942E0],"tree_param":{"num_deleted":"0","num_feature":"7","num_nodes":"17","size_leaf_vector":"1"}},{"base_weights":[4.1115932E-2,-8.67318E-1,1.0316099E0,-9.560753E-2,4.2712424E-2,4.1350114E-1,1.892627E0,-2.231974E-1,1.352752E0,3.3183217E-2,2.1054196E-1,-8.716492E-2,5.030653E-2,1.6507308E-1,2.1596903E-2],"categories":[],"categories_nodes":[],"categories_segments":[],"categories_sizes":[],"default_left":[0,0,0,0,0,0,0,0,0,0,0,0,0,0,0],"id":9,"left_children":[1,3,5,-1,-1,7,9,11,13,-1,-1,-1,-1,-1,-1],"loss_changes":[3.668917E1,2.854744E0,9.588665E0,0E0,0E0,7.850997E0,1.9131947E0,4.3858857E0,1.4190254E0,0E0,0E0,0E0,0E0,0E0,0E0],"parents":[2147483647,0,0,1,1,2,2,5,5,6,6,7,7,8,8],"right_children":[2,4,6,-1,-1,8,10,12,14,-1,-1,-1,-1,-1,-1],"split_conditions":[1E1,3.4E1,1.2E1,-9.560753E-2,4.2712424E-2,3.4E1,2E1,4.2E1,1.7E1,3.3183217E-2,2.1054196E-1,-8.716492E-2,5.030653E-2,1.6507308E-1,2.1596903E-2],"split_indices":[1,3,1,0,0,3,3,4,5,0,0,0,0,0,0],"split_type":[0,0,0,0,0,0,0,0,0,0,0,0,0,0,0],"sum_hessian":[3.8780506E1,2.0293047E1,1.848746E1,1.9235508E1,1.0575397E0,1.1623444E1,6.864015E0,7.381825E0,4.2416186E0,1.1306107E0,5.7334046E0,3.794066E0,3.587759E0,3.0024858E0,1.239133E0],"tree_param":{"num_deleted":"0","num_feature":"7","num_nodes":"15","size_leaf_vector":"1"}},{"base_weights":[7.83803E-2,9.443771E-1,-9.0753144E-1,2.7509677E-1,1.7024909E0,-9.526126E-2,-6.028973E-3,-5.564335E-1,7.9034114E-1,2.1724002E-1,1.041552E0,2.47052E-2,-8.33235E-2,-4.0717803E-2,1.211314E-1,-1.6870949E-3,1.8240719E-1],"categories":[],"categories_nodes":[],"categories_segments":[],"categories_sizes":[],"default_left":[0,0,0,0,0,0,0,0,0,0,0,0,0,0,0,0,0],"id":10,"left_children":[1,3,5,7,9,-1,-1,11,13,-1,15,-1,-1,-1,-1,-1,-1],"loss_changes":[3.495904E1,1.05694275E1,6.754303E-1,5.9009647E0,8.4542847E-1,0E0,0E0,1.4209472E0,4.6689954E0,0E0,5.0660057E0,0E0,0E0,0E0,0E0,0E0,0E0],"parents":[2147483647,0,0,1,1,2,2,3,3,4,4,7,7,8,8,10,10],"right_children":[2,4,6,8,10,-1,-1,12,14,-1,16,-1,-1,-1,-1,-1,-1],"split_conditions":[2.8E1,1.8E1,4.8E1,1.1E1,8E0,-9.526126E-2,-6.028973E-3,3E0,2.8E1,2.1724002E-1,3.2E1,2.47052E-2,-8.33235E-2,-4.0717803E-2,1.211314E-1,-1.6870949E-3,1.8240719E-1],"split_indices":[5,6,4,1,5,0,0,5,3,0,3,0,0,0,0,0,0],"split_type":[0,0,0,0,0,0,0,0,0,0,0,0,0,0,0,0,0],"sum_hessian":[3.8941597E1,2.0754002E1,1.8187595E1,1.17466545E1,9.007347E0,1.7150652E1,1.036944E0,4.4634104E0,7.2832437E0,3.927888E0,5.0794587E0,1.1711962E0,3.2922144E0,1.9029088E0,5.380335E0,2.5749993E0,2.5044594E0],"tree_param":{"num_deleted":"0","num_feature":"7","num_nodes":"17","size_leaf_vector":"1"}},{"base_weights":[-5.3964525E-2,-6.3744205E-1,1.1382717E0,-9.599667E-2,1.8162943E-1,-1.8912388E-2,1.2969935E0,-2.4546607E-1,7.079528E-1,3.462543E-1,1.4991972E0,-6.566383E-2,7.3845975E-2,1.1637817E-2,9.321862E-2,-1.427898E-2,7.2522335E-2,7.305184E-2,1.8286984E-1],"categories":[],"categories_nodes":[],"categories_segments":[],"categories_sizes":[],"default_left":[0,0,0,0,0,0,0,0,0,0,0,0,0,0,0,0,0,0,0],"id":11,"left_children":[1,3,5,-1,7,-1,9,11,13,15,17,-1,-1,-1,-1,-1,-1,-1,-1],"loss_changes":[2.6534742E1,6.9242373E0,2.8894005E0,0E0,1.9855084E0,0E0,1.6603279E0,2.5852985E0,4.0459025E-1,7.130361E-1,9.558487E-1,0E0,0E0,0E0,0E0,0E0,0E0,0E0,0E0],"parents":[2147483647,0,0,1,1,2,2,4,4,6,6,7,7,8,8,9,9,10,10],"right_children":[2,4,6,-1,8,-1,10,12,14,16,18,-1,-1,-1,-1,-1,-1,-1,-1],"split_conditions":[1.7E1,2.9E1,1.6E1,-9.599667E-2,2.16E3,-1.8912388E-2,1.8E3,5.5E1,9E0,1E1,2E1,-6.566383E-2,7.3845975E-2,1.1637817E-2,9.321862E-2,-1.427898E-2,7.2522335E-2,7.305184E-2,1.8286984E-1],"split_indices":[6,3,3,0,2,0,2,4,6,1,6,0,0,0,0,0,0,0,0],"split_type":[0,0,0,0,0,0,0,0,0,0,0,0,0,0,0,0,0,0,0],"sum_hessian":[3.610116E1,2.4551199E1,1.1549958E1,1.7491556E1,7.0596433E0,1.213113E0,1.0336845E1,4.19177E0,2.8678732E0,2.2885835E0,8.048262E0,3.190943E0,1.0008268E0,1.2057792E0,1.662094E0,1.2712729E0,1.0173106E0,3.3800755E0,4.668186E0],"tree_param":{"num_deleted":"0","num_feature":"7","num_nodes":"19","size_leaf_vector":"1"}},{"base_weights":[1.8443191E-2,7.0338255E-1,-8.3569723E-1,2.061587E-2,1.159334E0,-9.4476216E-2,4.352701E-2,-3.960351E-1,1.0890474E-1,4.7980806E-1,1.6080692E-1,1.5090743E-2,-8.3422534E-2,-3.840768E-2,1.2882192E-1],"categories":[],"categories_nodes":[],"categories_segments":[],"categories_sizes":[],"default_left":[0,0,0,0,0,0,0,0,0,0,0,0,0,0,0],"id":12,"left_children":[1,3,5,7,9,-1,-1,11,-1,13,-1,-1,-1,-1,-1],"loss_changes":[2.1942385E1,6.4513445E0,2.726325E0,4.592072E0,3.0258408E0,0E0,0E0,1.9132355E0,0E0,4.9492126E0,0E0,0E0,0E0,0E0,0E0],"parents":[2147483647,0,0,1,1,2,2,3,3,4,4,7,7,9,9],"right_children":[2,4,6,8,10,-1,-1,12,-1,14,-1,-1,-1,-1,-1],"split_conditions":[2.8E1,1.6E1,5E1,2.42E3,2.9E1,-9.4476216E-2,4.352701E-2,7E0,1.0890474E-1,2.2E1,1.6080692E-1,1.5090743E-2,-8.3422534E-2,-3.840768E-2,1.2882192E-1],"split_indices":[5,6,4,2,3,0,0,5,0,6,0,0,0,0,0],"split_type":[0,0,0,0,0,0,0,0,0,0,0,0,0,0,0],"sum_hessian":[3.5501392E1,1.9800098E1,1.5701294E1,8.346622E0,1.1453477E1,1.4696785E1,1.0045093E0,6.457682E0,1.8889401E0,5.378296E0,6.075181E0,3.164016E0,3.2936661E0,2.8536866E0,2.524609E0],"tree_param":{"num_deleted":"0","num_feature":"7","num_nodes":"15","size_leaf_vector":"1"}},{"base_weights":[2.4296401E-2,-9.329887E-2,6.115494E-1,2.671979E-1,1.4615259E-1,7.2714734E-1,-4.0257314E-1,-1.4299668E-2,1.0635568E-1,-7.305672E-2,1.5932387E-2],"categories":[],"categories_nodes":[],"categories_segments":[],"categories_sizes":[],"default_left":[0,0,0,0,0,0,0,0,0,0,0],"id":13,"left_children":[1,-1,3,5,-1,7,9,-1,-1,-1,-1],"loss_changes":[2.079233E1,0E0,6.311638E0,5.6899605E0,0E0,3.2969265E0,1.5496293E0,0E0,0E0,0E0,0E0],"parents":[2147483647,0,0,2,2,3,3,5,5,6,6],"right_children":[2,-1,4,6,-1,8,10,-1,-1,-1,-1],"split_conditions":[1.5E3,-9.329887E-2,3.6E1,1.4E1,1.4615259E-1,3E1,4.4E1,-1.4299668E-2,1.0635568E-1,-7.305672E-2,1.5932387E-2],"split_indices":[2,0,3,5,0,4,4,0,0,0,0],"split_type":[0,0,0,0,0,0,0,0,0,0,0],"sum_hessian":[3.4970997E1,1.3072574E1,2.1898424E1,1.652002E1,5.3784056E0,9.743343E0,6.7766757E0,2.8769264E0,6.866417E0,4.0894036E0,2.6872718E0],"tree_param":{"num_deleted":"0","num_feature":"7","num_nodes":"11","size_leaf_vector":"1"}},{"base_weights":[2.7684327E-2,-5.865762E-1,8.8457507E-1,4.7343233E-1,-9.143305E-1,4.723265E-1,1.691498E-1,-4.425169E-2,1.0350107E0,-9.554411E-2,-1.5383218E-2,9.666269E-1,-2.613115E-1,1.2579642E-1,3.4927703E-2,4.529663E-2,1.2924609E-1,-5.9732623E-2,3.343272E-2],"categories":[],"categories_nodes":[],"categories_segments":[],"categories_sizes":[],"default_left":[0,0,0,0,0,0,0,0,0,0,0,0,0,0,0,0,0,0,0],"id":14,"left_children":[1,3,5,7,9,11,-1,-1,13,-1,-1,15,17,-1,-1,-1,-1,-1,-1],"loss_changes":[1.8941353E1,7.724424E0,4.1950426E0,3.346537E0,3.6488438E-1,4.358981E0,0E0,0E0,1.3864231E-1,0E0,0E0,5.824857E-1,1.2695655E0,0E0,0E0,0E0,0E0,0E0,0E0],"parents":[2147483647,0,0,1,1,2,2,3,3,4,4,5,5,8,8,11,11,12,12],"right_children":[2,4,6,8,10,12,-1,-1,14,-1,-1,16,18,-1,-1,-1,-1,-1,-1],"split_conditions":[1.6E1,7E0,3.6E1,1.1E1,3.7E1,1.4E1,1.691498E-1,-4.425169E-2,1.1E1,-9.554411E-2,-1.5383218E-2,4.34E2,1.2E1,1.2579642E-1,3.4927703E-2,4.529663E-2,1.2924609E-1,-5.9732623E-2,3.343272E-2],"split_indices":[6,5,3,1,3,5,0,0,6,0,0,0,1,0,0,0,0,0,0],"split_type":[0,0,0,0,0,0,0,0,0,0,0,0,0,0,0,0,0,0,0],"sum_hessian":[3.4000164E1,1.998757E1,1.4012594E1,4.615582E0,1.5371988E1,1.0323678E1,3.6889167E0,1.8348709E0,2.7807112E0,1.43404455E1,1.0315428E0,5.9781933E0,4.3454843E0,1.4687086E0,1.3120025E0,3.2480242E0,2.7301693E0,2.776409E0,1.5690752E0],"tree_param":{"num_deleted":"0","num_feature":"7","num_nodes":"19","size_leaf_vector":"1"}},{"base_weights":[5.1594984E-2,-9.199101E-2,5.827344E-1,1.1822592E0,4.4444293E-2,5.50733E-1,1.4611761E-1,-7.093727E-1,5.4263234E-1,-4.272649E-2,1.3278835E-1,-9.5377E-3,-8.2819626E-2,-7.902571E-3,1.4731419E-1],"categories":[],"categories_nodes":[],"categories_segments":[],"categories_sizes":[],"default_left":[0,0,0,0,0,0,0,0,0,0,0,0,0,0,0],"id":15,"left_children":[1,-1,3,5,7,9,-1,11,13,-1,-1,-1,-1,-1,-1],"loss_changes":[1.7543804E1,0E0,7.0221224E0,1.015213E0,5.113017E0,4.192935E0,0E0,3.1812406E-1,4.829054E0,0E0,0E0,0E0,0E0,0E0,0E0],"parents":[2147483647,0,0,2,2,3,3,4,4,5,5,7,7,8,8],"right_children":[2,-1,4,6,8,10,-1,12,14,-1,-1,-1,-1,-1,-1],"split_conditions":[9E0,-9.199101E-2,8E0,2.5E1,3.2E1,2.2E1,1.4611761E-1,1.36E2,2E1,-4.272649E-2,1.3278835E-1,-9.5377E-3,-8.2819626E-2,-7.902571E-3,1.4731419E-1],"split_indices":[1,0,5,3,3,6,0,0,6,0,0,0,0,0,0],"split_type":[0,0,0,0,0,0,0,0,0,0,0,0,0,0,0],"sum_hessian":[3.1960443E1,1.1038326E1,2.0922115E1,9.332097E0,1.1590019E1,3.7701738E0,5.561923E0,4.4431324E0,7.146887E0,1.8687181E0,1.9014555E0,1.0127314E0,3.430401E0,4.833067E0,2.3138196E0],"tree_param":{"num_deleted":"0","num_feature":"7","num_nodes":"15","size_leaf_vector":"1"}},{"base_weights":[4.616507E-2,-5.797551E-1,7.9581356E-1,-9.0893894E-2,2.2782494E-1,3.526972E-1,1.202688E0,-5.940457E-2,5.646548E-1,-6.8285026E-2,6.641161E-1,6.6595E-1,1.5840538E-1,9.623166E-2,-6.5316963E-3,9.015835E-2,-2.4944186E-2,3.3458236E-3,1.217427E-1],"categories":[],"categories_nodes":[],"categories_segments":[],"categories_sizes":[],"default_left":[0,0,0,0,0,0,0,0,0,0,0,0,0,0,0,0,0,0,0],"id":16,"left_children":[1,3,5,-1,7,9,11,-1,13,-1,15,17,-1,-1,-1,-1,-1,-1,-1],"loss_changes":[1.5574391E1,5.02719E0,2.2941456E0,0E0,2.0102813E0,3.2372708E0,4.690733E-1,0E0,1.2663419E0,0E0,1.7745755E0,1.6397915E0,0E0,0E0,0E0,0E0,0E0,0E0,0E0],"parents":[2147483647,0,0,1,1,2,2,4,4,5,5,6,6,8,8,10,10,11,11],"right_children":[2,4,6,-1,8,10,12,-1,14,-1,16,18,-1,-1,-1,-1,-1,-1,-1],"split_conditions":[1.6E1,4.1E1,2.1E1,-9.0893894E-2,3E1,2.5E1,1.2E1,-5.940457E-2,7E0,-6.8285026E-2,2.4E1,3.4E1,1.5840538E-1,9.623166E-2,-6.5316963E-3,9.015835E-2,-2.4944186E-2,3.3458236E-3,1.217427E-1],"split_indices":[6,4,6,0,3,3,1,0,5,0,5,3,0,0,0,0,0,0,0],"split_type":[0,0,0,0,0,0,0,0,0,0,0,0,0,0,0,0,0,0,0],"sum_hessian":[3.1208792E1,1.7131472E1,1.4077319E1,1.208138E1,5.0500917E0,7.632168E0,6.4451513E0,1.2460564E0,3.8040352E0,1.4888046E0,6.1433635E0,3.817952E0,2.6271994E0,2.008586E0,1.7954494E0,4.8863325E0,1.2570307E0,2.2723978E0,1.5455542E0],"tree_param":{"num_deleted":"0","num_feature":"7","num_nodes":"19","size_leaf_vector":"1"}},{"base_weights":[4.6824418E-2,-9.057034E-2,4.651897E-1,2.2111991E-2,9.108893E-1,-2.503843E-1,1.0966196E-1,1.8081924E-1,1.1489025E0,-7.405481E-2,1.4664966E-2,-4.4187035E-2,8.924147E-2,5.8044057E-2,1.4289723E-1],"categories":[],"categories_nodes":[],"categories_segments":[],"categories_sizes":[],"default_left":[0,0,0,0,0,0,0,0,0,0,0,0,0,0,0],"id":17,"left_children":[1,-1,3,5,7,9,-1,11,13,-1,-1,-1,-1,-1,-1],"loss_changes":[1.3434269E1,0E0,4.590952E0,4.003136E0,1.8106451E0,2.243919E0,0E0,2.1856115E0,5.354595E-1,0E0,0E0,0E0,0E0,0E0,0E0],"parents":[2147483647,0,0,2,2,3,3,4,4,5,5,7,7,8,8],"right_children":[2,-1,4,6,8,10,-1,12,14,-1,-1,-1,-1,-1,-1],"split_conditions":[9E0,-9.057034E-2,1.8E1,2.64E3,2.2E1,4.1E1,1.0966196E-1,2.4E1,3.8E1,-7.405481E-2,1.4664966E-2,-4.4187035E-2,8.924147E-2,5.8044057E-2,1.4289723E-1],"split_indices":[1,0,6,2,3,4,0,6,4,0,0,0,0,0,0],"split_type":[0,0,0,0,0,0,0,0,0,0,0,0,0,0,0],"sum_hessian":[3.1654446E1,9.304726E0,2.2349722E1,1.173418E1,1.06155405E1,9.972198E0,1.7619827E0,3.042581E0,7.57296E0,4.0755143E0,5.896683E0,1.8248065E0,1.2177746E0,3.5136776E0,4.0592823E0],"tree_param":{"num_deleted":"0","num_feature":"7","num_nodes":"15","size_leaf_vector":"1"}},{"base_weights":[7.868125E-3,-5.540583E-1,6.768881E-1,2.780978E-1,-8.9356923E-1,1.8705882E-1,9.6994966E-1,-3.1028723E-2,5.5443E-1,-9.290878E-2,-2.837938E-2,-3.3842915E-1,7.071077E-1,1.13338664E-1,8.995558E-3,1.8306917E-2,7.385745E-2,-7.096477E-2,2.2539852E-2,9.9478E-2,2.860433E-3],"categories":[],"categories_nodes":[],"categories_segments":[],"categories_sizes":[],"default_left":[0,0,0,0,0,0,0,0,0,0,0,0,0,0,0,0,0,0,0,0,0],"id":18,"left_children":[1,3,5,7,9,11,13,-1,15,-1,-1,17,19,-1,-1,-1,-1,-1,-1,-1,-1],"loss_changes":[1.1987104E1,5.146818E0,1.9072886E0,1.1128603E0,8.1653595E-3,2.0663598E0,1.1730194E0,0E0,1.585803E-1,0E0,0E0,9.975333E-1,6.905949E-1,0E0,0E0,0E0,0E0,0E0,0E0,0E0,0E0],"parents":[2147483647,0,0,1,1,2,2,3,3,4,4,5,5,6,6,8,8,11,11,12,12],"right_children":[2,4,6,8,10,12,14,-1,16,-1,-1,18,20,-1,-1,-1,-1,-1,-1,-1,-1],"split_conditions":[1.1E1,8E0,1.2E1,3.8E1,2.16E3,3.4E1,2.8E1,-3.1028723E-2,3.13E2,-9.290878E-2,-2.837938E-2,4.3E1,4.45E2,1.13338664E-1,8.995558E-3,1.8306917E-2,7.385745E-2,-7.096477E-2,2.2539852E-2,9.9478E-2,2.860433E-3],"split_indices":[1,5,1,4,2,3,5,0,0,0,0,4,0,0,0,0,0,0,0,0,0],"split_type":[0,0,0,0,0,0,0,0,0,0,0,0,0,0,0,0,0,0,0,0,0],"sum_hessian":[2.9888088E1,1.6337582E1,1.3550505E1,4.786514E0,1.1551068E1,5.685662E0,7.864843E0,1.4903287E0,3.2961853E0,1.0420438E1,1.1306304E0,3.0017514E0,2.6839104E0,6.3900943E0,1.4747486E0,1.7536967E0,1.5424887E0,1.65409E0,1.3476615E0,1.5574452E0,1.1264652E0],"tree_param":{"num_deleted":"0","num_feature":"7","num_nodes":"21","size_leaf_vector":"1"}},{"base_weights":[-1.6454943E-2,-8.885942E-2,3.37506E-1,-1.8911492E-2,8.226566E-1,3.560118E-1,-6.1577475E-1,5.3010383E-3,9.26791E-1,-4.3644616E-3,8.02696E-2,-8.090323E-2,-1.6200436E-2,3.5221927E-2,1.1899274E-1],"categories":[],"categories_nodes":[],"categories_segments":[],"categories_sizes":[],"default_left":[0,0,0,0,0,0,0,0,0,0,0,0,0,0,0],"id":19,"left_children":[1,-1,3,5,7,9,11,-1,13,-1,-1,-1,-1,-1,-1],"loss_changes":[9.408948E0,0E0,3.77021E0,3.2391376E0,6.897092E-1,1.6278361E0,3.5764527E-1,0E0,7.993703E-1,0E0,0E0,0E0,0E0,0E0,0E0],"parents":[2147483647,0,0,2,2,3,3,4,4,5,5,6,6,8,8],"right_children":[2,-1,4,6,8,10,12,-1,14,-1,-1,-1,-1,-1,-1],"split_conditions":[9E0,-8.885942E-2,3.4E1,1.4E1,1.54E3,1.2E1,4.4E1,5.3010383E-3,4.1E1,-4.3644616E-3,8.02696E-2,-8.090323E-2,-1.6200436E-2,3.5221927E-2,1.1899274E-1],"split_indices":[1,0,3,5,2,1,4,0,4,0,0,0,0,0,0],"split_type":[0,0,0,0,0,0,0,0,0,0,0,0,0,0,0],"sum_hessian":[2.8507444E1,7.793726E0,2.0713718E1,1.249514E1,8.218577E0,7.9222555E0,4.5728846E0,1.1593091E0,7.059268E0,4.6574464E0,3.2648094E0,2.657965E0,1.9149197E0,2.9519892E0,4.107279E0],"tree_param":{"num_deleted":"0","num_feature":"7","num_nodes":"15","size_leaf_vector":"1"}},{"base_weights":[5.928978E-2,-8.9307696E-2,3.9303052E-1,1.7669961E-1,1.443343E-1,-2.5203177E-1,6.384812E-1,3.8445678E-2,-5.671614E-2,1.0963255E-1,2.1577736E-2],"categories":[],"categories_nodes":[],"categories_segments":[],"categories_sizes":[],"default_left":[0,0,0,0,0,0,0,0,0,0,0],"id":20,"left_children":[1,-1,3,5,-1,7,9,-1,-1,-1,-1],"loss_changes":[9.846945E0,0E0,4.9295044E0,4.132444E0,0E0,2.4483266E0,1.6873207E0,0E0,0E0,0E0,0E0],"parents":[2147483647,0,0,2,2,3,3,5,5,6,6],"right_children":[2,-1,4,6,-1,8,10,-1,-1,-1,-1],"split_conditions":[1.5E1,-8.9307696E-2,2.64E3,1.8E1,1.443343E-1,4E0,1E1,3.8445678E-2,-5.671614E-2,1.0963255E-1,2.1577736E-2],"split_indices":[3,0,2,6,0,5,5,0,0,0,0],"split_type":[0,0,0,0,0,0,0,0,0,0,0],"sum_hessian":[2.8876135E1,7.0583577E0,2.1817778E1,1.9060215E1,2.7575622E0,1.0119343E1,8.940872E0,3.2781823E0,6.841161E0,3.5270293E0,5.4138427E0],"tree_param":{"num_deleted":"0","num_feature":"7","num_nodes":"11","size_leaf_vector":"1"}},{"base_weights":[8.8716336E-2,-6.657478E-1,4.9979E-1,-9.208684E-2,7.0398696E-2,2.5585324E-1,1.1692919E-1,-1.6543904E-1,9.07018E-1,-3.914811E-2,7.303449E-2,4.5227297E-2,1.2117057E-1],"categories":[],"categories_nodes":[],"categories_segments":[],"categories_sizes":[],"default_left":[0,0,0,0,0,0,0,0,0,0,0,0,0],"id":21,"left_children":[1,3,5,-1,-1,7,-1,9,11,-1,-1,-1,-1],"loss_changes":[9.495977E0,4.4395056E0,2.9175515E0,0E0,0E0,4.4615517E0,0E0,2.3893876E0,3.287735E-1,0E0,0E0,0E0,0E0],"parents":[2147483647,0,0,1,1,2,2,5,5,7,7,8,8],"right_children":[2,4,6,-1,-1,8,-1,10,12,-1,-1,-1,-1],"split_conditions":[2.2E1,2.4E1,2.42E3,-9.208684E-2,7.0398696E-2,2E1,1.1692919E-1,5.47E2,3.5E1,-3.914811E-2,7.303449E-2,4.5227297E-2,1.2117057E-1],"split_indices":[3,6,2,0,0,6,0,0,3,0,0,0,0],"split_type":[0,0,0,0,0,0,0,0,0,0,0,0,0],"sum_hessian":[2.8545475E1,9.849204E0,1.8696272E1,8.579019E0,1.2701855E0,1.4716416E1,3.979855E0,9.38829E0,5.3281264E0,7.9461365E0,1.4421539E0,3.134412E0,2.1937144E0],"tree_param":{"num_deleted":"0","num_feature":"7","num_nodes":"13","size_leaf_vector":"1"}},{"base_weights":[5.3734966E-2,-8.855828E-2,3.5325077E-1,-8.595438E-2,7.621069E-1,3.691412E-1,-5.183955E-1,1.20916925E-1,3.7833387E-1,-3.012537E-2,7.88956E-2,-8.388211E-2,4.8876978E-3,-2.5594061E-2,7.847123E-2],"categories":[],"categories_nodes":[],"categories_segments":[],"categories_sizes":[],"default_left":[0,0,0,0,0,0,0,0,0,0,0,0,0,0,0],"id":22,"left_children":[1,-1,3,5,7,9,11,-1,13,-1,-1,-1,-1,-1,-1],"loss_changes":[8.60115E0,0E0,4.205048E0,2.5554097E0,1.6082363E0,2.049298E0,1.2361972E0,0E0,2.2458549E0,0E0,0E0,0E0,0E0,0E0,0E0],"parents":[2147483647,0,0,2,2,3,3,4,4,5,5,6,6,8,8],"right_children":[2,-1,4,6,8,10,12,-1,14,-1,-1,-1,-1,-1,-1],"split_conditions":[1.6E1,-8.855828E-2,1.8E1,8E0,8E0,1.1E1,2.42E3,1.20916925E-1,3.2E1,-3.012537E-2,7.88956E-2,-8.388211E-2,4.8876978E-3,-2.5594061E-2,7.847123E-2],"split_indices":[3,0,6,5,5,1,2,0,3,0,0,0,0,0,0],"split_type":[0,0,0,0,0,0,0,0,0,0,0,0,0,0,0],"sum_hessian":[2.846009E1,6.4077854E0,2.2052305E1,1.1012319E1,1.1039986E1,5.436935E0,5.575384E0,4.1060505E0,6.933935E0,2.20239E0,3.234545E0,3.2569783E0,2.3184056E0,2.8522856E0,4.0816493E0],"tree_param":{"num_deleted":"0","num_feature":"7","num_nodes":"15","size_leaf_vector":"1"}},{"base_weights":[1.26174595E-2,4.5385358E-1,-5.6155086E-1,2.437589E-2,8.5400903E-1,-9.038848E-2,2.3626858E-1,-5.6788605E-1,4.627567E-1,2.509158E-2,1.0086435E-1,-3.9214138E-2,7.7401444E-2,-7.353996E-2,-9.810667E-3,-3.0729333E-2,7.176486E-2],"categories":[],"categories_nodes":[],"categories_segments":[],"categories_sizes":[],"default_left":[0,0,0,0,0,0,0,0,0,0,0,0,0,0,0,0,0],"id":23,"left_children":[1,3,5,7,9,-1,11,13,15,-1,-1,-1,-1,-1,-1,-1,-1],"loss_changes":[7.0027947E0,2.6626165E0,3.4967995E0,2.485431E0,4.979949E-1,0E0,1.7911264E0,2.497294E-1,1.2942495E0,0E0,0E0,0E0,0E0,0E0,0E0,0E0,0E0],"parents":[2147483647,0,0,1,1,2,2,3,3,4,4,6,6,7,7,8,8],"right_children":[2,4,6,8,10,-1,12,14,16,-1,-1,-1,-1,-1,-1,-1,-1],"split_conditions":[1.7E1,1.8E1,3.4E1,3.2E1,2.6E1,-9.038848E-2,2E1,4.9E1,3.4E1,2.509158E-2,1.0086435E-1,-3.9214138E-2,7.7401444E-2,-7.353996E-2,-9.810667E-3,-3.0729333E-2,7.176486E-2],"split_indices":[5,6,3,3,4,0,6,4,4,0,0,0,0,0,0,0,0],"split_type":[0,0,0,0,0,0,0,0,0,0,0,0,0,0,0,0,0],"sum_hessian":[2.5635475E1,1.4614268E1,1.1021207E1,7.560583E0,7.053685E0,7.6190352E0,3.402172E0,3.0902164E0,4.4703665E0,1.9747105E0,5.0789742E0,1.6936916E0,1.7084805E0,1.8611536E0,1.2290628E0,1.0606053E0,3.4097614E0],"tree_param":{"num_deleted":"0","num_feature":"7","num_nodes":"17","size_leaf_vector":"1"}},{"base_weights":[3.480185E-2,-8.431484E-2,2.8426763E-1,5.4364968E-2,7.9435503E-1,4.677751E-1,-2.8530854E-1,3.9275834E-1,1.1679595E-1,-3.286822E-2,7.137115E-2,-7.316487E-2,4.4307847E-2,-2.1112738E-2,8.854192E-2],"categories":[],"categories_nodes":[],"categories_segments":[],"categories_sizes":[],"default_left":[0,0,0,0,0,0,0,0,0,0,0,0,0,0,0],"id":24,"left_children":[1,-1,3,5,7,9,11,13,-1,-1,-1,-1,-1,-1,-1],"loss_changes":[6.200384E0,0E0,2.5298867E0,2.4080558E0,5.530338E-1,1.7398775E0,3.4169805E0,1.6020693E0,0E0,0E0,0E0,0E0,0E0,0E0,0E0],"parents":[2147483647,0,0,2,2,3,3,4,4,5,5,6,6,7,7],"right_children":[2,-1,4,6,8,10,12,14,-1,-1,-1,-1,-1,-1,-1],"split_conditions":[9E0,-8.431484E-2,2.1E1,7E0,3.2E1,2.5E1,2.42E3,1.2E1,1.1679595E-1,-3.286822E-2,7.137115E-2,-7.316487E-2,4.4307847E-2,-2.1112738E-2,8.854192E-2],"split_indices":[1,0,6,5,3,3,2,1,0,0,0,0,0,0,0],"split_type":[0,0,0,0,0,0,0,0,0,0,0,0,0,0,0],"sum_hessian":[2.6215525E1,5.274179E0,2.0941345E1,1.5198E1,5.7433453E0,6.684857E0,8.513143E0,3.7565758E0,1.9867694E0,1.4978064E0,5.187051E0,5.275779E0,3.237364E0,1.944515E0,1.8120608E0],"tree_param":{"num_deleted":"0","num_feature":"7","num_nodes":"15","size_leaf_vector":"1"}},{"base_weights":[9.281152E-2,-6.3872457E-1,4.135385E-1,-8.820021E-2,6.953376E-2,6.32998E-2,7.4186283E-1,4.0912673E-2,-3.0083735E-2,-2.3680794E-1,6.500532E-1,-1.11759035E-2,9.0200996E-1,-5.90634E-2,2.9032052E-2,8.677663E-2,1.2028762E-2,9.749229E-2,2.0864306E-2],"categories":[],"categories_nodes":[],"categories_segments":[],"categories_sizes":[],"default_left":[0,0,0,0,0,0,0,0,0,0,0,0,0,0,0,0,0,0,0],"id":25,"left_children":[1,3,5,-1,7,9,11,-1,-1,13,15,-1,17,-1,-1,-1,-1,-1,-1],"loss_changes":[6.4355063E0,1.5104303E0,2.1255968E0,0E0,5.1010925E-1,1.9561707E0,1.4211545E0,0E0,0E0,1.5711279E0,3.2587063E-1,0E0,2.1330976E-1,0E0,0E0,0E0,0E0,0E0,0E0],"parents":[2147483647,0,0,1,1,2,2,4,4,5,5,6,6,9,9,10,10,12,12],"right_children":[2,4,6,-1,8,10,12,-1,-1,14,16,-1,18,-1,-1,-1,-1,-1,-1],"split_conditions":[1E1,4.6E1,4.1E1,-8.820021E-2,5.3E1,2.42E3,1.65E3,4.0912673E-2,-3.0083735E-2,2.1E1,3.1E1,-1.11759035E-2,2.8E1,-5.90634E-2,2.9032052E-2,8.677663E-2,1.2028762E-2,9.749229E-2,2.0864306E-2],"split_indices":[6,4,4,0,4,2,2,0,0,6,4,0,5,0,0,0,0,0,0],"split_type":[0,0,0,0,0,0,0,0,0,0,0,0,0,0,0,0,0,0,0],"sum_hessian":[2.5303307E1,7.4101768E0,1.789313E1,5.3330364E0,2.0771403E0,9.234771E0,8.658359E0,1.0290056E0,1.0481346E0,6.5043764E0,2.7303946E0,1.4155091E0,7.2428493E0,3.8198752E0,2.6845012E0,1.482943E0,1.2474514E0,6.1862464E0,1.0566026E0],"tree_param":{"num_deleted":"0","num_feature":"7","num_nodes":"19","size_leaf_vector":"1"}},{"base_weights":[6.406495E-2,6.4113474E-1,-3.0945656E-1,9.383202E-2,9.10934E-2,-7.317482E-1,1.0644725E-1,-3.5834792E-1,7.708491E-2,-8.951843E-2,3.4738411E-3,-2.4272665E-1,4.8413816E-1,9.5037585E-3,-6.398083E-2,-6.8514615E-2,5.395135E-2,-8.832258E-3,7.373855E-2],"categories":[],"categories_nodes":[],"categories_segments":[],"categories_sizes":[],"default_left":[0,0,0,0,0,0,0,0,0,0,0,0,0,0,0,0,0,0,0],"id":26,"left_children":[1,3,5,7,-1,9,11,13,-1,-1,-1,15,17,-1,-1,-1,-1,-1,-1],"loss_changes":[5.72828E0,1.4511385E0,2.9316902E0,1.6694137E0,0E0,1.0569983E0,1.312246E0,4.961055E-1,0E0,0E0,0E0,2.2292626E0,7.444552E-1,0E0,0E0,0E0,0E0,0E0,0E0],"parents":[2147483647,0,0,1,1,2,2,3,3,5,5,6,6,7,7,11,11,12,12],"right_children":[2,4,6,8,-1,10,12,14,-1,-1,-1,16,18,-1,-1,-1,-1,-1,-1],"split_conditions":[8E0,3.8E1,1.6E1,2.42E3,9.10934E-2,5.1E1,4.4E1,2E1,7.708491E-2,-8.951843E-2,3.4738411E-3,2.42E3,2.1E1,9.5037585E-3,-6.398083E-2,-6.8514615E-2,5.395135E-2,-8.832258E-3,7.373855E-2],"split_indices":[5,4,6,2,0,4,4,4,0,0,0,2,6,0,0,0,0,0,0],"split_type":[0,0,0,0,0,0,0,0,0,0,0,0,0,0,0,0,0,0,0],"sum_hessian":[2.4654968E1,9.406301E0,1.5248667E1,3.5508955E0,5.855405E0,7.1894145E0,8.059253E0,2.41117E0,1.1397256E0,5.7874618E0,1.4019525E0,4.3734E0,3.6858525E0,1.177215E0,1.2339549E0,2.8727517E0,1.5006485E0,1.3302004E0,2.3556523E0],"tree_param":{"num_deleted":"0","num_feature":"7","num_nodes":"19","size_leaf_vector":"1"}},{"base_weights":[3.1662222E-2,-7.7465016E-1,3.3278263E-1,-8.751738E-2,-2.5040215E-2,1.2697413E-2,7.899838E-1,-3.0847982E-1,5.65495E-1,1.0500123E-2,9.1321456E-1,-7.1287274E-2,1.4173472E-2,9.478413E-3,6.89505E-2,4.538297E-2,1.1151792E-1],"categories":[],"categories_nodes":[],"categories_segments":[],"categories_sizes":[],"default_left":[0,0,0,0,0,0,0,0,0,0,0,0,0,0,0,0,0],"id":27,"left_children":[1,3,5,-1,-1,7,9,11,13,-1,15,-1,-1,-1,-1,-1,-1],"loss_changes":[6.3452373E0,1.5595913E-1,2.763808E0,0E0,0E0,2.3343444E0,5.615902E-1,1.6197603E0,2.1621263E-1,0E0,9.431934E-2,0E0,0E0,0E0,0E0,0E0,0E0],"parents":[2147483647,0,0,1,1,2,2,5,5,6,6,7,7,8,8,10,10],"right_children":[2,4,6,-1,-1,8,10,12,14,-1,16,-1,-1,-1,-1,-1,-1],"split_conditions":[1E1,1.1E1,1.2E1,-8.751738E-2,-2.5040215E-2,3.6E1,2.2E1,4.2E1,3.7E1,1.0500123E-2,1.8E1,-7.1287274E-2,1.4173472E-2,9.478413E-3,6.89505E-2,4.538297E-2,1.1151792E-1],"split_indices":[6,1,1,0,0,3,3,4,3,0,6,0,0,0,0,0,0],"split_type":[0,0,0,0,0,0,0,0,0,0,0,0,0,0,0,0,0],"sum_hessian":[2.4072153E1,6.117831E0,1.7954323E1,4.5718064E0,1.546025E0,1.1165299E1,6.7890224E0,7.3417087E0,3.823591E0,1.3175336E0,5.4714885E0,3.5603316E0,3.7813773E0,1.1651812E0,2.6584098E0,2.6624975E0,2.808991E0],"tree_param":{"num_deleted":"0","num_feature":"7","num_nodes":"17","size_leaf_vector":"1"}},{"base_weights":[5.2975524E-2,-6.577903E-1,3.3041388E-1,1.4530729E-3,-8.405413E-2,1.1876454E-1,7.4946606E-1,5.191425E-1,-2.2573367E-1,3.2546958E-1,9.346434E-2,-2.5020475E-2,7.536998E-2,-6.458503E-2,4.2030007E-2,-2.5508229E-2,6.98226E-2],"categories":[],"categories_nodes":[],"categories_segments":[],"categories_sizes":[],"default_left":[0,0,0,0,0,0,0,0,0,0,0,0,0,0,0,0,0],"id":28,"left_children":[1,3,5,-1,-1,7,9,11,13,15,-1,-1,-1,-1,-1,-1,-1],"loss_changes":[4.999902E0,8.8990664E-1,1.5171763E0,0E0,0E0,1.9407241E0,1.5816617E-1,1.3466623E0,2.3893268E0,8.975186E-1,0E0,0E0,0E0,0E0,0E0,0E0,0E0],"parents":[2147483647,0,0,1,1,2,2,5,5,6,6,7,7,8,8,9,9],"right_children":[2,4,6,-1,-1,8,10,12,14,16,-1,-1,-1,-1,-1,-1,-1],"split_conditions":[1.65E3,7E0,2.1E1,1.4530729E-3,-8.405413E-2,7E0,2.5E1,2.5E1,2.42E3,2.4E1,9.346434E-2,-2.5020475E-2,7.536998E-2,-6.458503E-2,4.2030007E-2,-2.5508229E-2,6.98226E-2],"split_indices":[2,5,6,0,0,5,3,3,2,6,0,0,0,0,0,0,0],"split_type":[0,0,0,0,0,0,0,0,0,0,0,0,0,0,0,0,0],"sum_hessian":[2.3253103E1,6.143418E0,1.7109686E1,1.5097392E0,4.6336784E0,1.2220785E1,4.8889008E0,5.417537E0,6.803248E0,2.3243942E0,2.5645063E0,1.2501938E0,4.167343E0,4.1225996E0,2.6806483E0,1.0323073E0,1.292087E0],"tree_param":{"num_deleted":"0","num_feature":"7","num_nodes":"17","size_leaf_vector":"1"}},{"base_weights":[2.769946E-2,-5.9201413E-1,3.02133E-1,-8.670352E-2,2.5538001E-2,2.7788619E-2,6.9051445E-1,2.7650043E-1,-4.825271E-1,3.626301E-1,1.071504E-1,-1.3029722E-2,5.731037E-2,-6.944191E-2,-8.48849E-3,-2.8349806E-2,6.2745325E-2],"categories":[],"categories_nodes":[],"categories_segments":[],"categories_sizes":[],"default_left":[0,0,0,0,0,0,0,0,0,0,0,0,0,0,0,0,0],"id":29,"left_children":[1,3,5,-1,-1,7,9,11,13,15,-1,-1,-1,-1,-1,-1,-1],"loss_changes":[4.263397E0,2.0180538E0,1.8249369E0,0E0,0E0,1.5530101E0,5.012202E-1,1.0587045E0,2.8054512E-1,1.0915635E0,0E0,0E0,0E0,0E0,0E0,0E0,0E0],"parents":[2147483647,0,0,1,1,2,2,5,5,6,6,7,7,8,8,9,9],"right_children":[2,4,6,-1,-1,8,10,12,14,16,-1,-1,-1,-1,-1,-1,-1],"split_conditions":[2.2E1,2.2E1,1.2E1,-8.670352E-2,2.5538001E-2,1.7E1,2.1E1,3.4E1,2E1,1.98E3,1.071504E-1,-1.3029722E-2,5.731037E-2,-6.944191E-2,-8.48849E-3,-2.8349806E-2,6.2745325E-2],"split_indices":[3,6,1,0,0,5,6,3,6,2,0,0,0,0,0,0,0],"split_type":[0,0,0,0,0,0,0,0,0,0,0,0,0,0,0,0,0],"sum_hessian":[2.3016727E1,6.7091656E0,1.6307562E1,5.047746E0,1.6614195E0,1.0184792E1,6.1227703E0,7.1555696E0,3.0292215E0,4.3397446E0,1.7830261E0,3.2537222E0,3.9018476E0,1.4892842E0,1.5399375E0,1.2411089E0,3.0986354E0],"tree_param":{"num_deleted":"0","num_feature":"7","num_nodes":"17","size_leaf_vector":"1"}},{"base_weights":[3.9288197E-2,-7.9424284E-2,2.1576612E-1,-1.5697463E-1,5.181633E-1,-6.4137316E-1,1.7354815E-1,-2.3567853E-2,6.5607655E-1,-7.241294E-2,-1.9067569E-2,6.4670496E-2,-1.0088032E-2,7.862635E-2,-7.8062913E-3],"categories":[],"categories_nodes":[],"categories_segments":[],"categories_sizes":[],"default_left":[0,0,0,0,0,0,0,0,0,0,0,0,0,0,0],"id":30,"left_children":[1,-1,3,5,7,9,11,-1,13,-1,-1,-1,-1,-1,-1],"loss_changes":[3.6633582E0,0E0,2.3781922E0,1.6954842E0,1.3484275E0,1.9551635E-2,9.311305E-1,0E0,1.01438E0,0E0,0E0,0E0,0E0,0E0,0E0],"parents":[2147483647,0,0,2,2,3,3,4,4,5,5,6,6,8,8],"right_children":[2,-1,4,6,8,10,12,-1,14,-1,-1,-1,-1,-1,-1],"split_conditions":[1.5E1,-7.9424284E-2,4.1E1,1.1E1,7E0,3.6E1,2.2E2,-2.3567853E-2,2.8E1,-7.241294E-2,-1.9067569E-2,6.4670496E-2,-1.0088032E-2,7.862635E-2,-7.8062913E-3],"split_indices":[3,0,4,1,6,3,0,0,5,0,0,0,0,0,0],"split_type":[0,0,0,0,0,0,0,0,0,0,0,0,0,0,0],"sum_hessian":[2.27389E1,3.3615034E0,1.9377396E1,8.894616E0,1.04827795E1,3.2261064E0,5.66851E0,1.511568E0,8.971211E0,2.2130623E0,1.0130441E0,1.5828614E0,4.0856485E0,7.55964E0,1.4115714E0],"tree_param":{"num_deleted":"0","num_feature":"7","num_nodes":"15","size_leaf_vector":"1"}},{"base_weights":[-2.0360634E-2,-3.202058E-1,5.770419E-1,1.7897318E-1,-7.001722E-1,-1.2329189E-2,7.404297E-1,-5.6345064E-2,3.8883933E-1,-9.072795E-2,-3.3579096E-2,3.1833854E-1,1.02559045E-1,-3.3546243E-2,5.9703924E-2,-5.5868465E-2,5.28115E-2,-2.1306936E-2,5.827671E-2],"categories":[],"categories_nodes":[],"categories_segments":[],"categories_sizes":[],"default_left":[0,0,0,0,0,0,0,0,0,0,0,0,0,0,0,0,0,0,0],"id":31,"left_children":[1,3,5,7,9,-1,11,-1,13,-1,15,17,-1,-1,-1,-1,-1,-1,-1],"loss_changes":[4.039826E0,2.9651256E0,9.550791E-1,1.3514297E0,1.1712933E0,0E0,4.2743063E-1,0E0,1.1439157E0,0E0,1.2099462E0,6.8281555E-1,0E0,0E0,0E0,0E0,0E0,0E0,0E0],"parents":[2147483647,0,0,1,1,2,2,3,3,4,4,6,6,8,8,10,10,11,11],"right_children":[2,4,6,8,10,-1,12,-1,14,-1,16,18,-1,-1,-1,-1,-1,-1,-1],"split_conditions":[1.2E1,8E0,2.2E1,2.6E1,2.1E1,-1.2329189E-2,1.8E1,-5.6345064E-2,7E0,-9.072795E-2,3.2E1,2.8E1,1.02559045E-1,-3.3546243E-2,5.9703924E-2,-5.5868465E-2,5.28115E-2,-2.1306936E-2,5.827671E-2],"split_indices":[1,5,3,4,6,0,6,0,6,0,3,4,0,0,0,0,0,0,0],"split_type":[0,0,0,0,0,0,0,0,0,0,0,0,0,0,0,0,0,0,0],"sum_hessian":[2.0521193E1,1.3972295E1,6.5488977E0,6.267445E0,7.7048497E0,1.2852588E0,5.263639E0,1.0099235E0,5.2575216E0,5.602966E0,2.101884E0,2.9755764E0,2.2880623E0,1.0373739E0,4.2201476E0,1.0890923E0,1.0127916E0,1.0532146E0,1.9223619E0],"tree_param":{"num_deleted":"0","num_feature":"7","num_nodes":"19","size_leaf_vector":"1"}},{"base_weights":[-2.586984E-2,4.485107E-1,-4.190791E-1,2.4351759E-1,9.4188266E-2,-8.4451824E-2,-7.943809E-2,1.2037813E-2,8.8463806E-2,-5.077297E-1,3.4960133E-1,-4.1841213E-2,3.381512E-2,-6.73328E-2,1.7902853E-3,-3.47466E-3,6.227951E-2],"categories":[],"categories_nodes":[],"categories_segments":[],"categories_sizes":[],"default_left":[0,0,0,0,0,0,0,0,0,0,0,0,0,0,0,0,0],"id":32,"left_children":[1,3,5,7,-1,-1,9,11,-1,13,15,-1,-1,-1,-1,-1,-1],"loss_changes":[4.2783976E0,8.246641E-1,1.740175E0,1.2821624E0,0E0,0E0,1.6583362E0,1.1822572E0,0E0,3.9858854E-1,5.0654703E-1,0E0,0E0,0E0,0E0,0E0,0E0],"parents":[2147483647,0,0,1,1,2,2,3,3,6,6,7,7,9,9,10,10],"right_children":[2,4,6,8,-1,-1,10,12,-1,14,16,-1,-1,-1,-1,-1,-1],"split_conditions":[8E0,5.47E2,2.7E1,2.42E3,9.4188266E-2,-8.4451824E-2,1.8E1,4.1E1,8.8463806E-2,2.64E3,4.4E1,-4.1841213E-2,3.381512E-2,-6.73328E-2,1.7902853E-3,-3.47466E-3,6.227951E-2],"split_indices":[5,0,3,2,0,0,6,4,0,2,4,0,0,0,0,0,0],"split_type":[0,0,0,0,0,0,0,0,0,0,0,0,0,0,0,0,0],"sum_hessian":[2.0929008E1,9.421708E0,1.1507299E1,7.7112913E0,1.7104174E0,4.448519E0,7.0587807E0,6.4141912E0,1.2971E0,3.4406836E0,3.618097E0,2.6428123E0,3.7713788E0,2.4027286E0,1.037955E0,1.8658723E0,1.7522248E0],"tree_param":{"num_deleted":"0","num_feature":"7","num_nodes":"17","size_leaf_vector":"1"}},{"base_weights":[3.287852E-2,2.4370643E-1,-7.0451057E-1,9.561766E-3,6.672758E-1,-1.9818908E-2,-7.820452E-2,-3.8285023E-1,4.7305137E-1,7.4817084E-2,1.4761149E-2,9.714486E-3,-5.3888287E-2,-7.873999E-3,7.9074375E-2],"categories":[],"categories_nodes":[],"categories_segments":[],"categories_sizes":[],"default_left":[0,0,0,0,0,0,0,0,0,0,0,0,0,0,0],"id":33,"left_children":[1,3,5,7,9,-1,-1,11,13,-1,-1,-1,-1,-1,-1],"loss_changes":[3.5100298E0,1.7234694E0,4.2530775E-2,2.408635E0,1.4998078E-1,0E0,0E0,5.904608E-1,1.1250062E0,0E0,0E0,0E0,0E0,0E0,0E0],"parents":[2147483647,0,0,1,1,2,2,3,3,4,4,7,7,8,8],"right_children":[2,4,6,8,10,-1,-1,12,14,-1,-1,-1,-1,-1,-1],"split_conditions":[2.8E1,1.2E1,1.29E2,3.4E1,4.99E2,-1.9818908E-2,-7.820452E-2,3E0,1.7E1,7.4817084E-2,1.4761149E-2,9.714486E-3,-5.3888287E-2,-7.873999E-3,7.9074375E-2],"split_indices":[5,1,0,3,0,0,0,5,6,0,0,0,0,0,0],"split_type":[0,0,0,0,0,0,0,0,0,0,0,0,0,0,0],"sum_hessian":[2.047362E1,1.644213E1,4.031491E0,1.124731E1,5.1948195E0,1.0076178E0,3.0238729E0,6.184882E0,5.0624275E0,4.1145906E0,1.0802288E0,1.6098847E0,4.5749974E0,2.1245334E0,2.937894E0],"tree_param":{"num_deleted":"0","num_feature":"7","num_nodes":"15","size_leaf_vector":"1"}},{"base_weights":[1.19722284E-1,-4.0002888E-1,4.4242617E-1,-8.320301E-2,6.9465235E-2,7.5779295E-1,1.7425744E-1,5.3137034E-2,-3.3432838E-1,9.53298E-3,8.982488E-2,-3.8664058E-1,4.9838564E-1,-6.59261E-2,2.0068629E-2,-6.27833E-2,5.836842E-3,-4.495611E-3,7.4972615E-2],"categories":[],"categories_nodes":[],"categories_segments":[],"categories_sizes":[],"default_left":[0,0,0,0,0,0,0,0,0,0,0,0,0,0,0,0,0,0,0],"id":34,"left_children":[1,3,5,-1,7,9,11,-1,13,-1,-1,15,17,-1,-1,-1,-1,-1,-1],"loss_changes":[3.714399E0,1.8028593E0,1.0085287E0,0E0,1.1188002E0,4.6327615E-1,1.7538965E0,0E0,7.0705914E-1,0E0,0E0,4.346481E-1,8.365921E-1,0E0,0E0,0E0,0E0,0E0,0E0],"parents":[2147483647,0,0,1,1,2,2,4,4,5,5,6,6,8,8,11,11,12,12],"right_children":[2,4,6,-1,8,10,12,-1,14,-1,-1,16,18,-1,-1,-1,-1,-1,-1],"split_conditions":[1.5E1,1.1E1,8E0,-8.320301E-2,7E0,1E1,3.2E1,5.3137034E-2,5.1E1,9.53298E-3,8.982488E-2,1.2E1,1.1E1,-6.59261E-2,2.0068629E-2,-6.27833E-2,5.836842E-3,-4.495611E-3,7.4972615E-2],"split_indices":[6,1,5,0,5,1,3,0,4,0,0,1,1,0,0,0,0,0,0],"split_type":[0,0,0,0,0,0,0,0,0,0,0,0,0,0,0,0,0,0,0],"sum_hessian":[2.009048E1,7.6039085E0,1.2486572E1,3.5579271E0,4.045982E0,4.8992457E0,7.587327E0,1.7398256E0,2.3061562E0,1.1506927E0,3.748553E0,2.7081165E0,4.8792105E0,1.2902895E0,1.0158665E0,1.4898136E0,1.218303E0,1.8028935E0,3.0763168E0],"tree_param":{"num_deleted":"0","num_feature":"7","num_nodes":"19","size_leaf_vector":"1"}},{"base_weights":[3.7946004E-2,-2.23363E-1,6.3093865E-1,2.5276497E-1,-6.199255E-1,1.0246913E-1,8.6813956E-1,-9.473138E-2,6.914335E-2,-8.706782E-2,-1.8135373E-1,5.2124113E-2,-3.344013E-2,2.6038617E-2,9.9020414E-2,-3.279164E-2,3.2841753E-2,-4.322002E-2,2.3389144E-2],"categories":[],"categories_nodes":[],"categories_segments":[],"categories_sizes":[],"default_left":[0,0,0,0,0,0,0,0,0,0,0,0,0,0,0,0,0,0,0],"id":35,"left_children":[1,3,5,7,9,11,13,15,-1,-1,17,-1,-1,-1,-1,-1,-1,-1,-1],"loss_changes":[3.4296758E0,3.0777788E0,7.5759554E-1,1.2454193E0,8.021877E-1,7.6449335E-1,7.802677E-2,6.2064487E-1,0E0,0E0,5.634501E-1,0E0,0E0,0E0,0E0,0E0,0E0,0E0,0E0],"parents":[2147483647,0,0,1,1,2,2,3,3,4,4,5,5,6,6,7,7,10,10],"right_children":[2,4,6,8,10,12,14,16,-1,-1,18,-1,-1,-1,-1,-1,-1,-1,-1],"split_conditions":[3.6E1,8E0,1.7E1,1.2E1,1.8E1,7E0,1.62E3,2E1,6.914335E-2,-8.706782E-2,3.3E1,5.2124113E-2,-3.344013E-2,2.6038617E-2,9.9020414E-2,-3.279164E-2,3.2841753E-2,-4.322002E-2,2.3389144E-2],"split_indices":[3,5,6,1,6,5,2,6,0,0,3,0,0,0,0,0,0,0,0],"split_type":[0,0,0,0,0,0,0,0,0,0,0,0,0,0,0,0,0,0,0],"sum_hessian":[2.022398E1,1.4470652E1,5.753329E0,6.7404375E0,7.730214E0,2.2259772E0,3.5273519E0,4.1985526E0,2.5418847E0,4.2913713E0,3.4388425E0,1.0379254E0,1.1880519E0,1.1139971E0,2.4133546E0,2.8519714E0,1.3465813E0,2.1183388E0,1.3205038E0],"tree_param":{"num_deleted":"0","num_feature":"7","num_nodes":"19","size_leaf_vector":"1"}},{"base_weights":[9.5532E-2,-5.234816E-1,3.132287E-1,-8.3383396E-2,4.472925E-2,7.102989E-2,6.511004E-1,-3.1703657E-1,3.5062942E-1,2.8744045E-1,9.196065E-2,-7.0567355E-2,1.41886845E-2,-7.7778944E-3,5.638623E-2,-2.3720605E-2,6.637665E-2],"categories":[],"categories_nodes":[],"categories_segments":[],"categories_sizes":[],"default_left":[0,0,0,0,0,0,0,0,0,0,0,0,0,0,0,0,0],"id":36,"left_children":[1,3,5,-1,-1,7,9,11,13,15,-1,-1,-1,-1,-1,-1,-1],"loss_changes":[3.0310576E0,2.1535354E0,1.2930152E0,0E0,0E0,1.2672737E0,3.909526E-1,9.896169E-1,6.529727E-1,1.0074356E0,0E0,0E0,0E0,0E0,0E0,0E0,0E0],"parents":[2147483647,0,0,1,1,2,2,5,5,6,6,7,7,8,8,9,9],"right_children":[2,4,6,-1,-1,8,10,12,14,16,-1,-1,-1,-1,-1,-1,-1],"split_conditions":[2.2E1,2.4E1,1.2E1,-8.3383396E-2,4.472925E-2,3.4E1,4.1E1,4.2E1,1.7E1,3.86E2,9.196065E-2,-7.0567355E-2,1.41886845E-2,-7.7778944E-3,5.638623E-2,-2.3720605E-2,6.637665E-2],"split_indices":[3,6,1,0,0,3,4,4,6,0,0,0,0,0,0,0,0],"split_type":[0,0,0,0,0,0,0,0,0,0,0,0,0,0,0,0,0],"sum_hessian":[2.0275953E1,4.9099708E0,1.5365983E1,3.8274229E0,1.0825478E0,9.655089E0,5.7108936E0,3.9872053E0,5.667884E0,3.305075E0,2.4058187E0,1.8677983E0,2.119407E0,2.09468E0,3.573204E0,1.5349034E0,1.7701715E0],"tree_param":{"num_deleted":"0","num_feature":"7","num_nodes":"17","size_leaf_vector":"1"}},{"base_weights":[8.9445025E-2,-1.4403972E-1,6.2543416E-1,-6.566979E-1,1.2990877E-1,1.447887E-2,6.964714E-2,-1.3130969E-2,-7.44299E-2,6.6406226E-1,-1.2987658E-1,2.5120053E-2,7.981806E-2,-5.3445052E-2,4.7557928E-2],"categories":[],"categories_nodes":[],"categories_segments":[],"categories_sizes":[],"default_left":[0,0,0,0,0,0,0,0,0,0,0,0,0,0,0],"id":37,"left_children":[1,3,5,7,9,-1,-1,-1,-1,11,13,-1,-1,-1,-1],"loss_changes":[2.7229276E0,2.2575746E0,1.2351465E-1,1.5779042E-1,1.6009299E0,0E0,0E0,0E0,0E0,6.325245E-3,2.2579284E0,0E0,0E0,0E0,0E0],"parents":[2147483647,0,0,1,1,2,2,3,3,4,4,9,9,10,10],"right_children":[2,4,6,8,10,-1,-1,-1,-1,12,14,-1,-1,-1,-1],"split_conditions":[2.1E1,2.9E1,1.65E3,1.23E2,4E0,1.447887E-2,6.964714E-2,-1.3130969E-2,-7.44299E-2,3.2E1,2.42E3,2.5120053E-2,7.981806E-2,-5.3445052E-2,4.7557928E-2],"split_indices":[6,3,2,0,5,0,0,0,0,3,2,0,0,0,0],"split_type":[0,0,0,0,0,0,0,0,0,0,0,0,0,0,0],"sum_hessian":[2.0038267E1,1.4467343E1,5.570924E0,4.5519032E0,9.91544E0,1.1085522E0,4.4623713E0,1.0076234E0,3.5442798E0,2.735235E0,7.180205E0,1.3751216E0,1.3601134E0,4.374428E0,2.805777E0],"tree_param":{"num_deleted":"0","num_feature":"7","num_nodes":"15","size_leaf_vector":"1"}},{"base_weights":[2.319531E-2,-7.3382385E-2,1.6749687E-1,-1.818202E-1,4.2149693E-1,-3.5207492E-1,3.6975916E-2,1.4668505E-1,6.6808E-2,-6.042654E-2,-1.1637885E-2,-2.254843E-2,4.3887816E-2],"categories":[],"categories_nodes":[],"categories_segments":[],"categories_sizes":[],"default_left":[0,0,0,0,0,0,0,0,0,0,0,0,0],"id":38,"left_children":[1,-1,3,5,7,9,-1,11,-1,-1,-1,-1,-1],"loss_changes":[2.2920678E0,0E0,1.6286432E0,8.873594E-1,6.087229E-1,3.2634413E-1,0E0,7.7465796E-1,0E0,0E0,0E0,0E0,0E0],"parents":[2147483647,0,0,2,2,3,3,4,4,5,5,7,7],"right_children":[2,-1,4,6,8,10,-1,12,-1,-1,-1,-1,-1],"split_conditions":[1.6E1,-7.3382385E-2,1.7E1,2.64E3,4.4E1,4.1E1,3.6975916E-2,1.1E1,6.6808E-2,-6.042654E-2,-1.1637885E-2,-2.254843E-2,4.3887816E-2],"split_indices":[3,0,6,2,4,4,0,1,0,0,0,0,0],"split_type":[0,0,0,0,0,0,0,0,0,0,0,0,0],"sum_hessian":[1.8856955E1,2.3649359E0,1.6492018E1,7.062875E0,9.429143E0,5.673382E0,1.389493E0,5.2135816E0,4.2155614E0,1.9853479E0,3.688034E0,2.3933945E0,2.820187E0],"tree_param":{"num_deleted":"0","num_feature":"7","num_nodes":"13","size_leaf_vector":"1"}},{"base_weights":[1.3174167E-2,-5.028793E-1,2.4199735E-1,-7.559443E-2,3.4510147E-2,-2.6894225E-2,4.9384773E-1,2.7899835E-1,-3.2958397E-1,6.2956816E-1,-1.1034575E-2,-2.968648E-2,7.9905204E-2,-6.472105E-2,7.2827362E-3,2.48776E-2,7.523947E-2],"categories":[],"categories_nodes":[],"categories_segments":[],"categories_sizes":[],"default_left":[0,0,0,0,0,0,0,0,0,0,0,0,0,0,0,0,0],"id":39,"left_children":[1,3,5,-1,-1,7,9,11,13,15,-1,-1,-1,-1,-1,-1,-1],"loss_changes":[2.3519828E0,1.5756825E0,9.451285E-1,0E0,0E0,7.959474E-1,6.563456E-1,1.5319228E0,5.942019E-1,9.313512E-2,0E0,0E0,0E0,0E0,0E0,0E0,0E0],"parents":[2147483647,0,0,1,1,2,2,5,5,6,6,7,7,8,8,9,9],"right_children":[2,4,6,-1,-1,8,10,12,14,16,-1,-1,-1,-1,-1,-1,-1],"split_conditions":[2.5E1,2.4E1,1.8E1,-7.559443E-2,3.4510147E-2,8E0,2.6E1,1.1E1,2.42E3,1.8E3,-1.1034575E-2,-2.968648E-2,7.9905204E-2,-6.472105E-2,7.2827362E-3,2.48776E-2,7.523947E-2],"split_indices":[3,6,6,0,0,5,5,1,2,2,0,0,0,0,0,0,0],"split_type":[0,0,0,0,0,0,0,0,0,0,0,0,0,0,0,0,0],"sum_hessian":[1.7887135E1,5.1269355E0,1.2760199E1,4.032148E0,1.0947878E0,6.603303E0,6.156895E0,3.3232043E0,3.2800987E0,4.993258E0,1.1636372E0,1.7806401E0,1.5425643E0,1.493185E0,1.7869135E0,1.9556605E0,3.0375974E0],"tree_param":{"num_deleted":"0","num_feature":"7","num_nodes":"17","size_leaf_vector":"1"}},{"base_weights":[7.820087E-2,2.2977184E-1,-5.3885466E-1,4.7711372E-2,7.06052E-2,-6.907899E-2,-4.786954E-3,-3.702549E-1,3.6878383E-1,-5.7357747E-2,1.447958E-2,-4.8415246E-4,5.916206E-2],"categories":[],"categories_nodes":[],"categories_segments":[],"categories_sizes":[],"default_left":[0,0,0,0,0,0,0,0,0,0,0,0,0],"id":40,"left_children":[1,3,5,7,-1,-1,-1,9,11,-1,-1,-1,-1],"loss_changes":[1.921311E0,1.3649771E0,2.719518E-1,1.8464657E0,0E0,0E0,0E0,7.150081E-1,6.4454544E-1,0E0,0E0,0E0,0E0],"parents":[2147483647,0,0,1,1,2,2,3,3,7,7,8,8],"right_children":[2,4,6,8,-1,-1,-1,10,12,-1,-1,-1,-1],"split_conditions":[2.8E1,2.42E3,4.8E1,1.8E1,7.06052E-2,-6.907899E-2,-4.786954E-3,5.2E1,3.8E1,-5.7357747E-2,1.447958E-2,-4.8415246E-4,5.916206E-2],"split_indices":[5,2,4,6,0,0,0,4,4,0,0,0,0],"split_type":[0,0,0,0,0,0,0,0,0,0,0,0,0],"sum_hessian":[1.8218878E1,1.5130032E1,3.0888467E0,1.1741833E1,3.3881989E0,2.0481122E0,1.0407346E0,5.0346437E0,6.707189E0,3.5282075E0,1.5064362E0,2.87127E0,3.8359194E0],"tree_param":{"num_deleted":"0","num_feature":"7","num_nodes":"13","size_leaf_vector":"1"}},{"base_weights":[1.10819615E-1,2.6444122E-1,-5.35982E-1,-1.6933145E-2,4.9267372E-1,-6.902447E-2,-5.7719704E-3,2.3119563E-1,-4.2586455E-1,-1.5673583E-2,6.215746E-1,-1.7893123E-2,5.2410014E-2,-5.395412E-2,-9.220778E-3,-1.3584107E-2,7.7026635E-2],"categories":[],"categories_nodes":[],"categories_segments":[],"categories_sizes":[],"default_left":[0,0,0,0,0,0,0,0,0,0,0,0,0,0,0,0,0],"id":41,"left_children":[1,3,5,7,9,-1,-1,11,13,-1,15,-1,-1,-1,-1,-1,-1],"loss_changes":[2.0790415E0,1.0631297E0,2.6061344E-1,9.429559E-1,8.5935307E-1,0E0,0E0,7.9388106E-1,8.280635E-2,0E0,9.826312E-1,0E0,0E0,0E0,0E0,0E0,0E0],"parents":[2147483647,0,0,1,1,2,2,3,3,4,4,7,7,8,8,10,10],"right_children":[2,4,6,8,10,-1,-1,12,14,-1,16,-1,-1,-1,-1,-1,-1],"split_conditions":[2.8E1,3.2E1,2E1,8E0,2.5E1,-6.902447E-2,-5.7719704E-3,1.8E1,2E1,-1.5673583E-2,1.62E3,-1.7893123E-2,5.2410014E-2,-5.395412E-2,-9.220778E-3,-1.3584107E-2,7.7026635E-2],"split_indices":[5,3,6,5,4,0,0,6,5,0,2,0,0,0,0,0,0],"split_type":[0,0,0,0,0,0,0,0,0,0,0,0,0,0,0,0,0],"sum_hessian":[1.8497314E1,1.5424906E1,3.072408E0,7.3228292E0,8.102077E0,1.9879601E0,1.0844479E0,4.827976E0,2.4948535E0,1.3060725E0,6.796004E0,2.1736004E0,2.6543756E0,1.4006116E0,1.0942417E0,1.129403E0,5.666601E0],"tree_param":{"num_deleted":"0","num_feature":"7","num_nodes":"17","size_leaf_vector":"1"}},{"base_weights":[3.0910075E-2,-3.2085478E-1,2.9998428E-1,-4.9193546E-1,3.9604064E-2,-2.6988367E-2,4.2798138E-1,-7.549503E-2,-1.9886775E-2,7.1172975E-2,2.0823967E-1,3.2660037E-2,-3.0697498E-2,-3.365415E-4,4.7221135E-2],"categories":[],"categories_nodes":[],"categories_segments":[],"categories_sizes":[],"default_left":[0,0,0,0,0,0,0,0,0,0,0,0,0,0,0],"id":42,"left_children":[1,3,5,7,-1,-1,9,-1,11,-1,13,-1,-1,-1,-1],"loss_changes":[1.8470594E0,1.2373381E0,9.176744E-1,8.9237213E-1,0E0,0E0,4.3584096E-1,0E0,4.625471E-1,0E0,3.754196E-1,0E0,0E0,0E0,0E0],"parents":[2147483647,0,0,1,1,2,2,3,3,6,6,8,8,10,10],"right_children":[2,4,6,8,-1,-1,10,-1,12,-1,14,-1,-1,-1,-1],"split_conditions":[1.1E1,5.49E2,2.2E1,3.4E1,3.9604064E-2,-2.6988367E-2,8E0,-7.549503E-2,8E0,7.1172975E-2,3.6E1,3.2660037E-2,-3.0697498E-2,-3.365415E-4,4.7221135E-2],"split_indices":[1,0,3,3,0,0,5,0,5,0,3,0,0,0,0],"split_type":[0,0,0,0,0,0,0,0,0,0,0,0,0,0,0],"sum_hessian":[1.7497541E1,7.5001025E0,9.997439E0,6.3084455E0,1.1916568E0,1.6303396E0,8.3671E0,3.6663392E0,2.6421065E0,2.6745572E0,5.692543E0,1.1348381E0,1.5072684E0,3.7076588E0,1.9848841E0],"tree_param":{"num_deleted":"0","num_feature":"7","num_nodes":"15","size_leaf_vector":"1"}},{"base_weights":[1.839752E-2,4.397746E-1,-2.901033E-1,7.6102294E-2,6.156234E-1,-5.6001216E-1,1.3191305E-1,-2.9024659E-2,3.8033206E-2,1.2785784E-2,7.045042E-2,-8.409952E-2,2.602906E-2,-2.528963E-2,4.305749E-1,-2.3910066E-2,2.7792737E-2,1.34360045E-2,5.338135E-2],"categories":[],"categories_nodes":[],"categories_segments":[],"categories_sizes":[],"default_left":[0,0,0,0,0,0,0,0,0,0,0,0,0,0,0,0,0,0,0],"id":43,"left_children":[1,3,5,7,9,11,13,-1,-1,-1,-1,-1,15,-1,17,-1,-1,-1,-1],"loss_changes":[2.3975246E0,4.5057023E-1,1.2908044E0,5.2011955E-1,1.3110578E-1,1.1262794E0,6.8087226E-1,0E0,0E0,0E0,0E0,0E0,2.763932E-1,0E0,2.5282383E-2,0E0,0E0,0E0,0E0],"parents":[2147483647,0,0,1,1,2,2,3,3,4,4,5,5,6,6,12,12,14,14],"right_children":[2,4,6,8,10,12,14,-1,-1,-1,-1,-1,16,-1,18,-1,-1,-1,-1],"split_conditions":[8E0,3.8E1,2E1,1.2E1,1.65E3,2.42E3,3.2E1,-2.9024659E-2,3.8033206E-2,1.2785784E-2,7.045042E-2,-8.409952E-2,1.4E1,-2.528963E-2,1.1E1,-2.3910066E-2,2.7792737E-2,1.34360045E-2,5.338135E-2],"split_indices":[5,4,6,1,2,2,3,0,0,0,0,0,6,0,1,0,0,0,0],"split_type":[0,0,0,0,0,0,0,0,0,0,0,0,0,0,0,0,0,0,0],"sum_hessian":[1.6461761E1,6.7781105E0,9.683651E0,2.6762135E0,4.101897E0,5.706777E0,3.9768734E0,1.2350035E0,1.44121E0,1.0081017E0,3.093795E0,3.563283E0,2.1434944E0,1.8047664E0,2.172107E0,1.0690721E0,1.0744221E0,1.1561896E0,1.0159174E0],"tree_param":{"num_deleted":"0","num_feature":"7","num_nodes":"19","size_leaf_vector":"1"}},{"base_weights":[3.7196796E-2,4.0355405E-1,-2.5246593E-1,1.3138653E-1,6.3825893E-1,-6.6008604E-1,4.3271683E-2,5.0528772E-2,-2.264313E-1,1.4318854E-2,7.664455E-2,-7.3963456E-2,-2.146872E-2,-4.0371487E-1,3.3285874E-1,-3.685814E-2,1.2157351E-3,-2.1764927E-3,-6.139585E-2,-1.7658567E-2,6.326881E-2],"categories":[],"categories_nodes":[],"categories_segments":[],"categories_sizes":[],"default_left":[0,0,0,0,0,0,0,0,0,0,0,0,0,0,0,0,0,0,0,0,0],"id":44,"left_children":[1,3,5,7,9,11,13,-1,15,-1,-1,-1,-1,17,19,-1,-1,-1,-1,-1,-1],"loss_changes":[2.0166292E0,4.4964266E-1,1.3174037E0,8.002723E-1,1.5839696E-1,2.6648045E-3,1.057887E0,0E0,1.1674471E-1,0E0,0E0,0E0,0E0,2.48173E-1,8.5677E-1,0E0,0E0,0E0,0E0,0E0,0E0],"parents":[2147483647,0,0,1,1,2,2,3,3,4,4,5,5,6,6,8,8,13,13,14,14],"right_children":[2,4,6,8,10,12,14,-1,16,-1,-1,-1,-1,18,20,-1,-1,-1,-1,-1,-1],"split_conditions":[8E0,1.9E1,3.2E1,2.01E2,2.6E1,2.7E1,1.7E1,5.0528772E-2,3E1,1.4318854E-2,7.664455E-2,-7.3963456E-2,-2.146872E-2,3.5E1,1.1E1,-3.685814E-2,1.2157351E-3,-2.1764927E-3,-6.139585E-2,-1.7658567E-2,6.326881E-2],"split_indices":[5,6,3,0,4,3,6,0,3,0,0,0,0,3,1,0,0,0,0,0,0],"split_type":[0,0,0,0,0,0,0,0,0,0,0,0,0,0,0,0,0,0,0,0,0],"sum_hessian":[1.7043201E1,7.3517413E0,9.691461E0,4.126445E0,3.2252965E0,3.5569117E0,6.1345496E0,1.8163333E0,2.3101113E0,1.0987676E0,2.1265287E0,2.4574058E0,1.0995058E0,2.25688E0,3.8776693E0,1.1062009E0,1.2039104E0,1.1930274E0,1.0638527E0,1.5889343E0,2.2887352E0],"tree_param":{"num_deleted":"0","num_feature":"7","num_nodes":"21","size_leaf_vector":"1"}},{"base_weights":[5.8222447E-2,-1.447446E-1,3.908986E-1,-3.7559882E-1,3.833743E-1,4.9548022E-2,5.7468753E-2,3.182538E-1,-7.778463E-1,5.2193105E-2,4.575934E-3,-3.29747E-2,4.1441854E-2,-6.8162787E-3,6.86621E-2,-8.740617E-2,-2.1809261E-2],"categories":[],"categories_nodes":[],"categories_segments":[],"categories_sizes":[],"default_left":[0,0,0,0,0,0,0,0,0,0,0,0,0,0,0,0,0],"id":45,"left_children":[1,3,5,7,9,11,-1,13,15,-1,-1,-1,-1,-1,-1,-1,-1],"loss_changes":[1.2861892E0,1.6118759E0,4.2138052E-1,2.7267623E0,1.7057645E-1,6.354114E-1,0E0,6.1183107E-1,1.2784958E-1,0E0,0E0,0E0,0E0,0E0,0E0,0E0,0E0],"parents":[2147483647,0,0,1,1,2,2,3,3,4,4,5,5,7,7,8,8],"right_children":[2,4,6,8,10,12,-1,14,16,-1,-1,-1,-1,-1,-1,-1,-1],"split_conditions":[2E1,2.42E3,4.4E1,4E0,1.7E1,3.3E1,5.7468753E-2,3.2E1,4.66E2,5.2193105E-2,4.575934E-3,-3.29747E-2,4.1441854E-2,-6.8162787E-3,6.86621E-2,-8.740617E-2,-2.1809261E-2],"split_indices":[6,2,4,5,5,3,0,3,0,0,0,0,0,0,0,0,0],"split_type":[0,0,0,0,0,0,0,0,0,0,0,0,0,0,0,0,0],"sum_hessian":[1.721041E1,1.1039857E1,6.170553E0,7.882858E0,3.156999E0,2.603911E0,3.566642E0,2.9694853E0,4.9133725E0,1.8512943E0,1.3057048E0,1.3239175E0,1.2799934E0,1.8469732E0,1.1225121E0,3.7135444E0,1.1998284E0],"tree_param":{"num_deleted":"0","num_feature":"7","num_nodes":"17","size_leaf_vector":"1"}},{"base_weights":[-8.040401E-3,-2.0192522E-1,4.1654083E-1,-4.6352366E-1,1.9357947E-1,3.959865E-3,5.8945847E-1,8.366331E-3,-6.232401E-1,5.355654E-2,-1.5086249E-1,1.9158602E-2,6.764712E-2,-8.1513E-2,-1.7423423E-2,-4.230819E-2,1.9379511E-2],"categories":[],"categories_nodes":[],"categories_segments":[],"categories_sizes":[],"default_left":[0,0,0,0,0,0,0,0,0,0,0,0,0,0,0,0,0],"id":46,"left_children":[1,3,5,7,9,-1,11,-1,13,-1,15,-1,-1,-1,-1,-1,-1],"loss_changes":[1.4908086E0,1.3731589E0,3.4711015E-1,7.3040104E-1,7.45606E-1,0E0,2.7905703E-3,0E0,3.8576865E-1,0E0,4.1900447E-1,0E0,0E0,0E0,0E0,0E0,0E0],"parents":[2147483647,0,0,1,1,2,2,3,3,4,4,6,6,8,8,10,10],"right_children":[2,4,6,8,10,-1,12,-1,14,-1,16,-1,-1,-1,-1,-1,-1],"split_conditions":[3.6E1,1.2E1,1.7E1,3E0,8E0,3.959865E-3,2E1,8.366331E-3,2E1,5.355654E-2,2.3E1,1.9158602E-2,6.764712E-2,-8.1513E-2,-1.7423423E-2,-4.230819E-2,1.9379511E-2],"split_indices":[3,1,6,5,5,0,6,0,6,0,5,0,0,0,0,0,0],"split_type":[0,0,0,0,0,0,0,0,0,0,0,0,0,0,0,0,0],"sum_hessian":[1.6088205E1,1.1404677E1,4.683527E0,6.7608633E0,4.6438146E0,1.8593478E0,2.8241794E0,1.6351231E0,5.12574E0,2.051783E0,2.5920315E0,1.081366E0,1.7428135E0,3.0197785E0,2.1059616E0,1.3210722E0,1.2709591E0],"tree_param":{"num_deleted":"0","num_feature":"7","num_nodes":"17","size_leaf_vector":"1"}},{"base_weights":[3.546821E-2,-2.2867547E-1,2.911933E-1,-4.8880258E-1,2.548524E-1,1.3480064E-1,6.0605448E-2,-6.569555E-2,3.6343806E-3,-2.8828206E-3,3.9150182E-2,-2.120705E-1,3.0306283E-1,5.0067864E-3,-3.6625516E-2,-9.739157E-3,4.5353293E-2],"categories":[],"categories_nodes":[],"categories_segments":[],"categories_sizes":[],"default_left":[0,0,0,0,0,0,0,0,0,0,0,0,0,0,0,0,0],"id":47,"left_children":[1,3,5,7,9,11,-1,-1,-1,-1,-1,13,15,-1,-1,-1,-1],"loss_changes":[1.2657692E0,1.2934177E0,3.841374E-1,5.876998E-1,1.6277525E-1,5.082361E-1,0E0,0E0,0E0,0E0,0E0,1.4253911E-1,3.776126E-1,0E0,0E0,0E0,0E0],"parents":[2147483647,0,0,1,1,2,2,3,3,4,4,5,5,11,11,12,12],"right_children":[2,4,6,8,10,12,-1,-1,-1,-1,-1,14,16,-1,-1,-1,-1],"split_conditions":[1.8E1,2.42E3,5.22E2,5.2E1,1.2E1,2.5E1,6.0605448E-2,-6.569555E-2,3.6343806E-3,-2.8828206E-3,3.9150182E-2,2.68E2,2.8E1,5.0067864E-3,-3.6625516E-2,-9.739157E-3,4.5353293E-2],"split_indices":[6,2,0,4,1,3,0,0,0,0,0,0,4,0,0,0,0],"split_type":[0,0,0,0,0,0,0,0,0,0,0,0,0,0,0,0,0],"sum_hessian":[1.6752968E1,8.29287E0,8.460098E0,5.3849688E0,2.9079008E0,6.6066694E0,1.8534291E0,3.8887799E0,1.496189E0,1.201875E0,1.7060258E0,2.0729473E0,4.533722E0,1.0177999E0,1.0551474E0,1.3346081E0,3.1991138E0],"tree_param":{"num_deleted":"0","num_feature":"7","num_nodes":"17","size_leaf_vector":"1"}},{"base_weights":[5.8336865E-2,3.4607857E-1,-1.9186044E-1,6.474007E-2,5.8027934E-2,-4.0552023E-1,1.5008792E-1,-2.9507414E-2,3.458186E-1,-7.1305044E-2,-1.2252495E-1,-1.407556E-1,4.9937114E-2,-6.46899E-5,5.327781E-2,-3.1656753E-2,2.1618148E-2,-4.5003753E-2,2.6910234E-2],"categories":[],"categories_nodes":[],"categories_segments":[],"categories_sizes":[],"default_left":[0,0,0,0,0,0,0,0,0,0,0,0,0,0,0,0,0,0,0],"id":48,"left_children":[1,3,5,7,-1,9,11,-1,13,-1,15,17,-1,-1,-1,-1,-1,-1,-1],"loss_changes":[1.3103437E0,5.154531E-1,7.831231E-1,6.0149574E-1,0E0,4.6564662E-1,5.306243E-1,0E0,2.0976084E-1,0E0,3.652854E-1,5.3342164E-1,0E0,0E0,0E0,0E0,0E0,0E0,0E0],"parents":[2147483647,0,0,1,1,2,2,3,3,5,5,6,6,8,8,10,10,11,11],"right_children":[2,4,6,8,-1,10,12,-1,14,-1,16,18,-1,-1,-1,-1,-1,-1,-1],"split_conditions":[8E0,1.8E1,1.2E1,1.1E1,5.8027934E-2,1.7E1,5.1E1,-2.9507414E-2,4E1,-7.1305044E-2,1.1E1,1.8E1,4.9937114E-2,-6.46899E-5,5.327781E-2,-3.1656753E-2,2.1618148E-2,-4.5003753E-2,2.6910234E-2],"split_indices":[5,6,1,1,0,6,4,0,4,0,1,6,0,0,0,0,0,0,0],"split_type":[0,0,0,0,0,0,0,0,0,0,0,0,0,0,0,0,0,0,0],"sum_hessian":[1.6278883E1,7.393127E0,8.8857565E0,3.938433E0,3.4546938E0,5.3543096E0,3.5314472E0,1.7054545E0,2.2329786E0,1.837667E0,3.5166423E0,2.2526834E0,1.2787637E0,1.13191E0,1.1010685E0,2.277336E0,1.2393066E0,1.2279956E0,1.0246878E0],"tree_param":{"num_deleted":"0","num_feature":"7","num_nodes":"19","size_leaf_vector":"1"}},{"base_weights":[5.5573583E-3,2.8313106E-1,-2.4133515E-1,5.8879912E-2,5.175798E-1,-4.9991468E-1,1.5389459E-1,-3.5029914E-2,3.8727617E-1,1.2139088E-2,6.631333E-2,-7.2970495E-2,-9.592783E-2,-2.0724278E-2,4.2250715E-2,-3.2903084E-3,5.981906E-2,-3.4378197E-2,1.6668249E-2],"categories":[],"categories_nodes":[],"categories_segments":[],"categories_sizes":[],"default_left":[0,0,0,0,0,0,0,0,0,0,0,0,0,0,0,0,0,0,0],"id":49,"left_children":[1,3,5,7,9,11,13,-1,15,-1,-1,-1,17,-1,-1,-1,-1,-1,-1],"loss_changes":[1.2222815E0,4.1046655E-1,1.0428698E0,8.632929E-1,1.4854395E-1,4.822501E-1,5.2434963E-1,0E0,3.2799584E-1,0E0,0E0,0E0,2.7263424E-1,0E0,0E0,0E0,0E0,0E0,0E0],"parents":[2147483647,0,0,1,1,2,2,3,3,4,4,5,5,6,6,8,8,12,12],"right_children":[2,4,6,8,10,12,14,-1,16,-1,-1,-1,18,-1,-1,-1,-1,-1,-1],"split_conditions":[8E0,1.9E1,2E1,1.1E1,3.8E1,1.2E1,3.2E1,-3.5029914E-2,2.6E1,1.2139088E-2,6.631333E-2,-7.2970495E-2,3.3E1,-2.0724278E-2,4.2250715E-2,-3.2903084E-3,5.981906E-2,-3.4378197E-2,1.6668249E-2],"split_indices":[5,6,6,1,4,1,3,0,3,0,0,0,3,0,0,0,0,0,0],"split_type":[0,0,0,0,0,0,0,0,0,0,0,0,0,0,0,0,0,0,0],"sum_hessian":[1.5838425E1,7.3868437E0,8.451581E0,4.4150105E0,2.9718332E0,4.9488916E0,3.5026896E0,1.9360329E0,2.4789777E0,1.2912134E0,1.6806197E0,2.6406271E0,2.3082645E0,1.5914829E0,1.9112067E0,1.110554E0,1.3684237E0,1.0284798E0,1.2797846E0],"tree_param":{"num_deleted":"0","num_feature":"7","num_nodes":"19","size_leaf_vector":"1"}},{"base_weights":[5.954434E-3,-3.6662987E-1,3.2810387E-1,-5.197418E-1,2.9974476E-2,1.4210683E-1,8.1375174E-2,-6.534993E-2,-9.8785525E-3,-3.841682E-2,4.0421265E-1,6.449286E-3,7.562638E-2],"categories":[],"categories_nodes":[],"categories_segments":[],"categories_sizes":[],"default_left":[0,0,0,0,0,0,0,0,0,0,0,0,0],"id":50,"left_children":[1,3,5,7,-1,9,-1,-1,-1,-1,11,-1,-1],"loss_changes":[1.8927186E0,9.026142E-1,6.473813E-1,2.9117608E-1,0E0,1.1649307E0,0E0,0E0,0E0,0E0,5.938683E-1,0E0,0E0],"parents":[2147483647,0,0,1,1,2,2,3,3,5,5,10,10],"right_children":[2,4,6,8,-1,10,-1,-1,-1,-1,12,-1,-1],"split_conditions":[3.2E1,5.29E2,5.6E1,1.2E1,2.9974476E-2,1.6E1,8.1375174E-2,-6.534993E-2,-9.8785525E-3,-3.841682E-2,2.16E3,6.449286E-3,7.562638E-2],"split_indices":[3,0,4,1,0,6,0,0,0,0,2,0,0],"split_type":[0,0,0,0,0,0,0,0,0,0,0,0,0],"sum_hessian":[1.3766791E1,6.3196635E0,7.4471273E0,5.3178377E0,1.0018257E0,6.3194647E0,1.1276629E0,3.616341E0,1.7014967E0,1.9461483E0,4.3733163E0,2.8277786E0,1.5455378E0],"tree_param":{"num_deleted":"0","num_feature":"7","num_nodes":"13","size_leaf_vector":"1"}},{"base_weights":[6.439233E-2,3.6877304E-1,-2.1804157E-1,5.231183E-2,5.5724222E-2,-6.043352E-1,1.0723035E-1,4.1362952E-2,-3.1404752E-2,-7.102944E-2,-1.46765625E-2,-3.326413E-2,3.7682882E-1,1.302281E-2,4.385381E-2],"categories":[],"categories_nodes":[],"categories_segments":[],"categories_sizes":[],"default_left":[0,0,0,0,0,0,0,0,0,0,0,0,0,0,0],"id":51,"left_children":[1,3,5,7,-1,9,11,-1,-1,-1,-1,-1,13,-1,-1],"loss_changes":[1.3929065E0,4.3128097E-1,1.1388166E0,6.5741056E-1,0E0,9.249997E-2,7.763567E-1,0E0,0E0,0E0,0E0,0E0,1.818955E-3,0E0,0E0],"parents":[2147483647,0,0,1,1,2,2,3,3,5,5,6,6,12,12],"right_children":[2,4,6,8,-1,10,12,-1,-1,-1,-1,-1,14,-1,-1],"split_conditions":[8E0,3.8E1,1.98E3,2.2E1,5.5724222E-2,4.8E1,3.3E1,4.1362952E-2,-3.1404752E-2,-7.102944E-2,-1.46765625E-2,-3.326413E-2,3.57E2,1.302281E-2,4.385381E-2],"split_indices":[5,4,2,4,0,4,3,0,0,0,0,0,0,0,0],"split_type":[0,0,0,0,0,0,0,0,0,0,0,0,0,0,0],"sum_hessian":[1.4267394E1,6.7197657E0,7.547629E0,2.985064E0,3.7347014E0,3.0580015E0,4.4896274E0,1.4379126E0,1.5471514E0,2.0345433E0,1.0234582E0,1.6171982E0,2.8724291E0,1.1974727E0,1.6749563E0],"tree_param":{"num_deleted":"0","num_feature":"7","num_nodes":"15","size_leaf_vector":"1"}},{"base_weights":[2.996915E-2,-1.7336462E-1,3.3836147E-1,-4.328829E-1,2.4966367E-1,4.691589E-1,-1.9321857E-2,-6.750099E-2,-9.8952495E-2,4.9779725E-1,-2.3255356E-2,8.821274E-2,7.04535E-2,2.9122174E-2,-3.331798E-2,1.1649056E-2,6.309344E-2,4.9909484E-2,-3.5109673E-2],"categories":[],"categories_nodes":[],"categories_segments":[],"categories_sizes":[],"default_left":[0,0,0,0,0,0,0,0,0,0,0,0,0,0,0,0,0,0,0],"id":52,"left_children":[1,3,5,7,9,11,-1,-1,13,15,-1,17,-1,-1,-1,-1,-1,-1,-1],"loss_changes":[1.0778419E0,1.2559965E0,5.632388E-1,4.8675668E-1,6.673574E-1,4.531145E-1,0E0,0E0,4.6710244E-1,9.718335E-2,0E0,7.7770746E-1,0E0,0E0,0E0,0E0,0E0,0E0,0E0],"parents":[2147483647,0,0,1,1,2,2,3,3,4,4,5,5,8,8,9,9,11,11],"right_children":[2,4,6,8,10,12,-1,-1,14,16,-1,18,-1,-1,-1,-1,-1,-1,-1],"split_conditions":[1.2E1,3.6E1,2.8E1,4.2E1,3.8E1,3.4E1,-1.9321857E-2,-6.750099E-2,4.7E1,3.7E1,-2.3255356E-2,2.2E1,7.04535E-2,2.9122174E-2,-3.331798E-2,1.1649056E-2,6.309344E-2,4.9909484E-2,-3.5109673E-2],"split_indices":[1,3,5,4,3,4,0,0,4,3,0,4,0,0,0,0,0,0,0],"split_type":[0,0,0,0,0,0,0,0,0,0,0,0,0,0,0,0,0,0,0],"sum_hessian":[1.5253192E1,9.456222E0,5.7969713E0,5.8463326E0,3.6098886E0,4.746501E0,1.05047E0,2.796924E0,3.0494087E0,2.362112E0,1.2477764E0,2.3377411E0,2.40876E0,1.0526245E0,1.9967843E0,1.0965484E0,1.2655636E0,1.1376337E0,1.2001076E0],"tree_param":{"num_deleted":"0","num_feature":"7","num_nodes":"19","size_leaf_vector":"1"}},{"base_weights":[-4.111822E-2,-2.2657444E-1,3.236093E-1,-5.405331E-1,-2.9463891E-3,-1.9550385E-2,4.9057087E-1,-6.578424E-2,-1.8835226E-2,3.1702746E-2,-1.8011007E-1,1.2018073E-2,6.31988E-2,-4.9553346E-2,1.8352682E-2],"categories":[],"categories_nodes":[],"categories_segments":[],"categories_sizes":[],"default_left":[0,0,0,0,0,0,0,0,0,0,0,0,0,0,0],"id":53,"left_children":[1,3,5,7,9,-1,11,-1,-1,-1,13,-1,-1,-1,-1],"loss_changes":[1.1033689E0,7.484761E-1,5.764982E-1,5.946982E-2,4.6778232E-1,0E0,1.5873301E-1,0E0,0E0,0E0,6.9891936E-1,0E0,0E0,0E0,0E0],"parents":[2147483647,0,0,1,1,2,2,3,3,4,4,6,6,10,10],"right_children":[2,4,6,8,10,-1,12,-1,-1,-1,14,-1,-1,-1,-1],"split_conditions":[3.6E1,3.3E1,1.62E3,1.8E1,2.01E2,-1.9550385E-2,1.7E1,-6.578424E-2,-1.8835226E-2,3.1702746E-2,4.07E2,1.2018073E-2,6.31988E-2,-4.9553346E-2,1.8352682E-2],"split_indices":[3,4,2,6,0,0,6,0,0,0,0,0,0,0,0],"split_type":[0,0,0,0,0,0,0,0,0,0,0,0,0,0,0],"sum_hessian":[1.4228152E1,9.683223E0,4.5449295E0,3.4385805E0,6.2446427E0,1.0644413E0,3.4804883E0,1.9283487E0,1.5102317E0,1.9440498E0,4.300593E0,1.4728167E0,2.0076716E0,2.1087344E0,2.1918585E0],"tree_param":{"num_deleted":"0","num_feature":"7","num_nodes":"15","size_leaf_vector":"1"}},{"base_weights":[9.562046E-2,2.1443622E-1,-4.7444224E-2,7.959762E-3,5.4989797E-1,-2.785382E-1,3.018352E-1,1.90773E-2,6.3036844E-2,-4.5253307E-2,1.966981E-2,5.6237794E-2,-2.4327343E-2],"categories":[],"categories_nodes":[],"categories_segments":[],"categories_sizes":[],"default_left":[0,0,0,0,0,0,0,0,0,0,0,0,0],"id":54,"left_children":[1,3,-1,5,7,9,11,-1,-1,-1,-1,-1,-1],"loss_changes":[1.1695828E0,9.469872E-1,0E0,8.853364E-1,3.0547738E-2,5.304835E-1,8.7218964E-1,0E0,0E0,0E0,0E0,0E0,0E0],"parents":[2147483647,0,0,1,1,3,3,4,4,5,5,6,6],"right_children":[2,4,-1,6,8,10,12,-1,-1,-1,-1,-1,-1],"split_conditions":[2.8E1,1.2E1,-4.7444224E-2,3.4E1,2.5E1,4.78E2,3.8E1,1.90773E-2,6.3036844E-2,-4.5253307E-2,1.966981E-2,5.6237794E-2,-2.4327343E-2],"split_indices":[5,1,0,3,3,0,3,0,0,0,0,0,0],"split_type":[0,0,0,0,0,0,0,0,0,0,0,0,0],"sum_hessian":[1.4765641E1,1.27351465E1,2.0304952E0,8.516794E0,4.2183523E0,4.3389544E0,4.1778393E0,1.3892231E0,2.8291292E0,3.211078E0,1.1278765E0,2.8053164E0,1.372523E0],"tree_param":{"num_deleted":"0","num_feature":"7","num_nodes":"13","size_leaf_vector":"1"}},{"base_weights":[6.578822E-2,-1.34224E-1,3.7177163E-1,-6.31885E-2,2.2302132E-2,6.2207934E-2,1.3770561E-1,1.8173721E-1,-4.8744705E-2,-2.2132745E-2,4.3047104E-2,-2.106629E-2,4.308639E-2],"categories":[],"categories_nodes":[],"categories_segments":[],"categories_sizes":[],"default_left":[0,0,0,0,0,0,0,0,0,0,0,0,0],"id":55,"left_children":[1,3,5,-1,7,-1,9,11,-1,-1,-1,-1,-1],"loss_changes":[9.984784E-1,8.014387E-1,2.8883332E-1,0E0,7.9199845E-1,0E0,5.7747394E-1,8.0648446E-1,0E0,0E0,0E0,0E0,0E0],"parents":[2147483647,0,0,1,1,2,2,4,4,6,6,7,7],"right_children":[2,4,6,-1,8,-1,10,12,-1,-1,-1,-1,-1],"split_conditions":[1.2E1,2.5E1,8E0,-6.31885E-2,2.4E1,6.2207934E-2,2.3E1,1.6E1,-4.8744705E-2,-2.2132745E-2,4.3047104E-2,-2.106629E-2,4.308639E-2],"split_indices":[1,4,5,0,5,0,5,6,0,0,0,0,0],"split_type":[0,0,0,0,0,0,0,0,0,0,0,0,0],"sum_hessian":[1.4499529E1,9.107539E0,5.39199E0,1.4525033E0,7.655036E0,1.8045334E0,3.587457E0,6.321368E0,1.3336675E0,1.7209634E0,1.8664936E0,2.5147593E0,3.806609E0],"tree_param":{"num_deleted":"0","num_feature":"7","num_nodes":"13","size_leaf_vector":"1"}},{"base_weights":[-3.781806E-2,8.611644E-2,-5.597486E-2,-8.539159E-2,3.9134014E-1,-5.8233E-2,6.720723E-2,2.7806885E-3,5.4172856E-1,-3.1582333E-2,3.647421E-2,7.972415E-3,7.3337905E-2],"categories":[],"categories_nodes":[],"categories_segments":[],"categories_sizes":[],"default_left":[0,0,0,0,0,0,0,0,0,0,0,0,0],"id":56,"left_children":[1,3,-1,5,7,-1,9,-1,11,-1,-1,-1,-1],"loss_changes":[9.6790075E-1,6.8025494E-1,0E0,7.013024E-1,2.3775983E-1,0E0,9.787139E-1,0E0,2.2638375E-1,0E0,0E0,0E0,0E0],"parents":[2147483647,0,0,1,1,3,3,4,4,6,6,8,8],"right_children":[2,4,-1,6,8,-1,10,-1,12,-1,-1,-1,-1],"split_conditions":[2.8E1,1.2E1,-5.597486E-2,2.5E1,2.7E1,-5.8233E-2,1.7E1,2.7806885E-3,3E1,-3.1582333E-2,3.647421E-2,7.972415E-3,7.3337905E-2],"split_indices":[5,1,0,4,4,0,6,0,3,0,0,0,0],"split_type":[0,0,0,0,0,0,0,0,0,0,0,0,0],"sum_hessian":[1.3218045E1,1.1356421E1,1.8616238E0,7.7319818E0,3.6244397E0,1.1549147E0,6.577067E0,1.4073528E0,2.217087E0,2.8485403E0,3.7285266E0,1.0652109E0,1.1518761E0],"tree_param":{"num_deleted":"0","num_feature":"7","num_nodes":"13","size_leaf_vector":"1"}},{"base_weights":[-1.9246245E-2,-2.6793796E-1,2.5918365E-1,3.571189E-2,-6.1581183E-2,3.673091E-1,-1.9482022E-2,-2.7620795E-1,4.639733E-2,-4.582682E-3,4.9892172E-1,-5.2809816E-2,7.2369515E-3,4.973588E-3,6.268213E-2],"categories":[],"categories_nodes":[],"categories_segments":[],"categories_sizes":[],"default_left":[0,0,0,0,0,0,0,0,0,0,0,0,0,0,0],"id":57,"left_children":[1,3,5,7,-1,9,-1,11,-1,-1,13,-1,-1,-1,-1],"loss_changes":[1.0615747E0,8.733802E-1,4.2835194E-1,8.292931E-1,0E0,3.6089343E-1,0E0,3.5990217E-1,0E0,0E0,2.4452448E-1,0E0,0E0,0E0,0E0],"parents":[2147483647,0,0,1,1,2,2,3,3,5,5,7,7,10,10],"right_children":[2,4,6,8,-1,10,-1,12,-1,-1,14,-1,-1,-1,-1],"split_conditions":[3.4E1,1.3E1,2.8E1,1.2E1,-6.1581183E-2,1E1,-1.9482022E-2,1.9E1,4.639733E-2,-4.582682E-3,1.62E3,-5.2809816E-2,7.2369515E-3,4.973588E-3,6.268213E-2],"split_indices":[3,5,5,1,0,6,0,6,0,0,2,0,0,0,0],"split_type":[0,0,0,0,0,0,0,0,0,0,0,0,0,0,0],"sum_hessian":[1.3328187E1,7.05996E0,6.2682266E0,4.2487135E0,2.8112466E0,5.21676E0,1.0514666E0,2.66369E0,1.5850233E0,1.41786E0,3.7989001E0,1.2473303E0,1.4163598E0,1.1497657E0,2.6491344E0],"tree_param":{"num_deleted":"0","num_feature":"7","num_nodes":"15","size_leaf_vector":"1"}},{"base_weights":[5.552685E-2,3.2645005E-1,-2.0353787E-1,3.597549E-2,4.8774293E-1,-3.6919758E-1,2.75503E-2,3.7117686E-2,-3.0477673E-2,1.1010778E-2,6.0518485E-2,-5.98866E-1,8.014237E-3,-7.314331E-2,-1.8520966E-2],"categories":[],"categories_nodes":[],"categories_segments":[],"categories_sizes":[],"default_left":[0,0,0,0,0,0,0,0,0,0,0,0,0,0,0],"id":58,"left_children":[1,3,5,7,9,11,-1,-1,-1,-1,-1,13,-1,-1,-1],"loss_changes":[1.0985168E0,3.3720654E-1,7.471163E-1,5.452216E-1,1.4575231E-1,7.15731E-1,0E0,0E0,0E0,0E0,0E0,1.05807304E-1,0E0,0E0,0E0],"parents":[2147483647,0,0,1,1,2,2,3,3,4,4,5,5,11,11],"right_children":[2,4,6,8,10,12,-1,-1,-1,-1,-1,14,-1,-1,-1],"split_conditions":[8E0,3.8E1,2.64E3,2.2E1,1.8E3,2.1E1,2.75503E-2,3.7117686E-2,-3.0477673E-2,1.1010778E-2,6.0518485E-2,4.43E2,8.014237E-3,-7.314331E-2,-1.8520966E-2],"split_indices":[5,4,2,4,2,6,0,0,0,0,0,0,0,0,0],"split_type":[0,0,0,0,0,0,0,0,0,0,0,0,0,0,0],"sum_hessian":[1.3704678E1,6.5718727E0,7.1328044E0,2.782991E0,3.7888818E0,5.470366E0,1.6624384E0,1.3579123E0,1.4250786E0,1.3584213E0,2.4304605E0,3.3998523E0,2.0705137E0,1.9929453E0,1.406907E0],"tree_param":{"num_deleted":"0","num_feature":"7","num_nodes":"15","size_leaf_vector":"1"}},{"base_weights":[2.1222997E-2,-1.2033882E-1,3.0858663E-1,-3.5403693E-1,1.570483E-1,-2.466715E-3,4.5402804E-1,-6.1623186E-2,-4.191158E-2,3.532599E-2,-5.432062E-2,1.3597998E-2,5.5239763E-2,-3.3027757E-2,2.596806E-2,-2.7319953E-2,1.7741898E-2],"categories":[],"categories_nodes":[],"categories_segments":[],"categories_sizes":[],"default_left":[0,0,0,0,0,0,0,0,0,0,0,0,0,0,0,0,0],"id":59,"left_children":[1,3,5,7,9,-1,11,-1,13,-1,15,-1,-1,-1,-1,-1,-1],"loss_changes":[6.485593E-1,7.5500274E-1,2.6522988E-1,4.785365E-1,2.5252175E-1,0E0,4.065144E-2,0E0,4.2377698E-1,0E0,2.2981395E-1,0E0,0E0,0E0,0E0,0E0,0E0],"parents":[2147483647,0,0,1,1,2,2,3,3,4,4,6,6,8,8,10,10],"right_children":[2,4,6,8,10,-1,12,-1,14,-1,16,-1,-1,-1,-1,-1,-1],"split_conditions":[3.6E1,1.2E1,1.7E1,4.4E1,3.01E2,-2.466715E-3,1E1,-6.1623186E-2,1.9E1,3.532599E-2,1.8E1,1.3597998E-2,5.5239763E-2,-3.3027757E-2,2.596806E-2,-2.7319953E-2,1.7741898E-2],"split_indices":[3,1,6,4,0,0,1,0,6,0,6,0,0,0,0,0,0],"split_type":[0,0,0,0,0,0,0,0,0,0,0,0,0,0,0,0,0],"sum_hessian":[1.4030201E1,9.789101E0,4.2411003E0,5.162976E0,4.626125E0,1.5408673E0,2.700233E0,2.2764113E0,2.8865643E0,2.050952E0,2.575173E0,1.2006463E0,1.4995866E0,1.4270163E0,1.4595481E0,1.2323276E0,1.3428453E0],"tree_param":{"num_deleted":"0","num_feature":"7","num_nodes":"17","size_leaf_vector":"1"}},{"base_weights":[1.2746489E-2,-2.1624841E-1,2.1813811E-1,-4.3018082E-1,1.963716E-1,-2.4476796E-2,3.2090142E-1,1.1142379E-3,-6.161633E-2,1.6360227E-3,2.6996866E-2,-1.329644E-2,4.858466E-1,4.030808E-3,6.0875405E-2],"categories":[],"categories_nodes":[],"categories_segments":[],"categories_sizes":[],"default_left":[0,0,0,0,0,0,0,0,0,0,0,0,0,0,0],"id":60,"left_children":[1,3,5,7,9,-1,11,-1,-1,-1,-1,-1,13,-1,-1],"loss_changes":[7.42234E-1,7.4560905E-1,4.728192E-1,4.3743098E-1,3.855923E-2,0E0,6.047596E-1,0E0,0E0,0E0,0E0,0E0,2.7702117E-1,0E0,0E0],"parents":[2147483647,0,0,1,1,2,2,3,3,4,4,6,6,12,12],"right_children":[2,4,6,8,10,-1,12,-1,-1,-1,-1,-1,14,-1,-1],"split_conditions":[4.2E1,2.42E3,7E0,2.1E1,1.6E1,-2.4476796E-2,2.5E1,1.1142379E-3,-6.161633E-2,1.6360227E-3,2.6996866E-2,-1.329644E-2,1E1,4.030808E-3,6.0875405E-2],"split_indices":[4,2,6,4,6,0,3,0,0,0,0,0,1,0,0],"split_type":[0,0,0,0,0,0,0,0,0,0,0,0,0,0,0],"sum_hessian":[1.3777976E1,6.4896674E0,7.288308E0,4.2457833E0,2.243884E0,1.0730048E0,6.2153034E0,1.5374985E0,2.7082849E0,1.0058837E0,1.2380004E0,1.7083814E0,4.506922E0,1.2615969E0,3.245325E0],"tree_param":{"num_deleted":"0","num_feature":"7","num_nodes":"15","size_leaf_vector":"1"}},{"base_weights":[1.8357871E-2,-1.5238656E-1,3.317996E-1,-2.481504E-1,3.1218126E-2,-3.415523E-4,4.4948325E-1,-3.7819088E-1,2.8473547E-2,4.5513557E-3,5.9292383E-2,-6.450557E-2,-1.4222219E-2],"categories":[],"categories_nodes":[],"categories_segments":[],"categories_sizes":[],"default_left":[0,0,0,0,0,0,0,0,0,0,0,0,0],"id":61,"left_children":[1,3,5,7,-1,-1,9,11,-1,-1,-1,-1,-1],"loss_changes":[8.19892E-1,5.219588E-1,2.1392947E-1,7.2031456E-1,0E0,0E0,2.0436287E-1,3.8281357E-1,0E0,0E0,0E0,0E0,0E0],"parents":[2147483647,0,0,1,1,2,2,3,3,6,6,7,7],"right_children":[2,4,6,8,-1,-1,10,12,-1,-1,-1,-1,-1],"split_conditions":[2.1E1,5.49E2,2E1,2.64E3,3.1218126E-2,-3.415523E-4,1.8E3,3.4E1,2.8473547E-2,4.5513557E-3,5.9292383E-2,-6.450557E-2,-1.4222219E-2],"split_indices":[6,0,3,2,0,0,2,4,0,0,0,0,0],"split_type":[0,0,0,0,0,0,0,0,0,0,0,0,0],"sum_hessian":[1.33750515E1,8.9910755E0,4.3839755E0,7.840681E0,1.1503946E0,1.3914596E0,2.992516E0,6.535995E0,1.3046864E0,1.1293218E0,1.8631942E0,2.253635E0,4.28236E0],"tree_param":{"num_deleted":"0","num_feature":"7","num_nodes":"13","size_leaf_vector":"1"}},{"base_weights":[5.1640797E-2,1.6320625E-1,-5.1761568E-2,-6.77826E-2,3.3213672E-1,-4.0901937E-2,1.0247051E-1,-1.432728E-2,4.5373452E-1,-2.8171465E-2,3.3098403E-2,-2.1806613E-3,6.1621614E-2],"categories":[],"categories_nodes":[],"categories_segments":[],"categories_sizes":[],"default_left":[0,0,0,0,0,0,0,0,0,0,0,0,0],"id":62,"left_children":[1,3,-1,5,7,-1,9,-1,11,-1,-1,-1,-1],"loss_changes":[9.9587923E-1,5.20395E-1,0E0,4.0328437E-1,5.0083536E-1,0E0,5.277598E-1,0E0,4.9585605E-1,0E0,0E0,0E0,0E0],"parents":[2147483647,0,0,1,1,3,3,4,4,6,6,8,8],"right_children":[2,4,-1,6,8,-1,10,-1,12,-1,-1,-1,-1],"split_conditions":[2.8E1,3.7E1,-5.1761568E-2,1.5E1,8E0,-4.0901937E-2,1.1E1,-1.432728E-2,2.5E1,-2.8171465E-2,3.3098403E-2,-2.1806613E-3,6.1621614E-2],"split_indices":[5,4,0,6,6,0,1,0,3,0,0,0,0],"split_type":[0,0,0,0,0,0,0,0,0,0,0,0,0],"sum_hessian":[1.335066E1,1.17593155E1,1.5913445E0,5.220189E0,6.5391264E0,1.2707725E0,3.9494166E0,1.2955762E0,5.2435503E0,1.3861527E0,2.5632641E0,1.5558306E0,3.6877196E0],"tree_param":{"num_deleted":"0","num_feature":"7","num_nodes":"13","size_leaf_vector":"1"}},{"base_weights":[6.258378E-2,3.721277E-1,-1.980624E-1,-9.474616E-3,4.8137134E-1,-3.6896637E-1,1.587386E-1,-5.500262E-3,6.159745E-1,-6.0008723E-2,1.0853485E-2,-1.6122174E-2,4.1017637E-2,1.3912183E-2,7.582497E-2,-1.4234564E-2,1.7395478E-2],"categories":[],"categories_nodes":[],"categories_segments":[],"categories_sizes":[],"default_left":[0,0,0,0,0,0,0,0,0,0,0,0,0,0,0,0,0],"id":63,"left_children":[1,3,5,-1,7,9,11,-1,13,-1,15,-1,-1,-1,-1,-1,-1],"loss_changes":[1.2391344E0,4.0009958E-1,5.7654834E-1,0E0,4.5240414E-1,5.370995E-1,3.4369978E-1,0E0,2.1446407E-1,0E0,1.0643857E-1,0E0,0E0,0E0,0E0,0E0,0E0],"parents":[2147483647,0,0,1,1,2,2,4,4,5,5,6,6,8,8,10,10],"right_children":[2,4,6,-1,8,10,12,-1,14,-1,16,-1,-1,-1,-1,-1,-1],"split_conditions":[8E0,8E0,2.1E1,-9.474616E-3,1E1,2.42E3,3.2E1,-5.500262E-3,2.2E1,-6.0008723E-2,1.5E1,-1.6122174E-2,4.1017637E-2,1.3912183E-2,7.582497E-2,-1.4234564E-2,1.7395478E-2],"split_indices":[5,6,6,0,1,2,3,0,3,0,6,0,0,0,0,0,0],"split_type":[0,0,0,0,0,0,0,0,0,0,0,0,0,0,0,0,0],"sum_hessian":[1.3444832E1,5.9504056E0,7.494426E0,1.1534824E0,4.796923E0,5.044207E0,2.4502187E0,1.0809332E0,3.7159898E0,2.7754292E0,2.2687778E0,1.2360796E0,1.2141391E0,1.3084375E0,2.4075525E0,1.2355224E0,1.0332555E0],"tree_param":{"num_deleted":"0","num_feature":"7","num_nodes":"17","size_leaf_vector":"1"}},{"base_weights":[6.340748E-2,-2.6355585E-1,1.9983864E-1,-4.7073397E-1,1.5489754E-2,-4.780973E-2,3.461023E-1,-5.924353E-2,-9.831645E-3,-4.011484E-2,1.8275045E-1,1.3332453E-1,6.1408754E-2,-2.6399347E-3,2.8699894E-2,-1.8652095E-2,4.4661462E-2],"categories":[],"categories_nodes":[],"categories_segments":[],"categories_sizes":[],"default_left":[0,0,0,0,0,0,0,0,0,0,0,0,0,0,0,0,0],"id":64,"left_children":[1,3,5,7,-1,9,11,-1,-1,-1,13,15,-1,-1,-1,-1,-1],"loss_changes":[6.7823166E-1,4.6824405E-1,3.95557E-1,9.121138E-2,0E0,4.6140105E-1,3.0015224E-1,0E0,0E0,0E0,8.541085E-2,5.855112E-1,0E0,0E0,0E0,0E0,0E0],"parents":[2147483647,0,0,1,1,2,2,3,3,5,5,6,6,10,10,11,11],"right_children":[2,4,6,8,-1,10,12,-1,-1,-1,14,16,-1,-1,-1,-1,-1],"split_conditions":[2.5E1,2.2E1,1.6E1,2.1E1,1.5489754E-2,1.1E1,3.7E1,-5.924353E-2,-9.831645E-3,-4.011484E-2,4.6E1,4.2E1,6.1408754E-2,-2.6399347E-3,2.8699894E-2,-1.8652095E-2,4.4661462E-2],"split_indices":[3,6,6,3,0,1,3,0,0,0,4,4,0,0,0,0,0],"split_type":[0,0,0,0,0,0,0,0,0,0,0,0,0,0,0,0,0],"sum_hessian":[1.3023565E1,3.5600238E0,9.463542E0,2.2975562E0,1.2624677E0,3.763851E0,5.699691E0,1.2863957E0,1.0111605E0,1.1940527E0,2.5697982E0,4.011837E0,1.6878539E0,1.1032184E0,1.4665799E0,2.1853738E0,1.826463E0],"tree_param":{"num_deleted":"0","num_feature":"7","num_nodes":"17","size_leaf_vector":"1"}},{"base_weights":[6.0577713E-2,3.3316007E-1,-1.8641E-1,4.7942676E-2,4.562013E-1,-4.0654823E-1,1.5024483E-1,-2.0031197E-2,2.779271E-2,1.1177913E-2,5.6051403E-2,-6.1987787E-2,-1.7213315E-1,-1.5425778E-2,4.1452277E-2,-3.1772316E-2,2.4816908E-3],"categories":[],"categories_nodes":[],"categories_segments":[],"categories_sizes":[],"default_left":[0,0,0,0,0,0,0,0,0,0,0,0,0,0,0,0,0],"id":65,"left_children":[1,3,5,7,9,11,13,-1,-1,-1,-1,-1,15,-1,-1,-1,-1],"loss_changes":[9.939521E-1,2.2162223E-1,6.467563E-1,2.3886278E-1,1.0727996E-1,1.4574075E-1,3.7413898E-1,0E0,0E0,0E0,0E0,0E0,1.165482E-1,0E0,0E0,0E0,0E0],"parents":[2147483647,0,0,1,1,2,2,3,3,4,4,5,5,6,6,12,12],"right_children":[2,4,6,8,10,12,14,-1,-1,-1,-1,-1,16,-1,-1,-1,-1],"split_conditions":[8E0,3.4E1,1.2E1,1.2E1,1.8E3,1.7E1,5E1,-2.0031197E-2,2.779271E-2,1.1177913E-2,5.6051403E-2,-6.1987787E-2,1.98E3,-1.5425778E-2,4.1452277E-2,-3.1772316E-2,2.4816908E-3],"split_indices":[5,4,1,1,2,6,4,0,0,0,0,0,2,0,0,0,0],"split_type":[0,0,0,0,0,0,0,0,0,0,0,0,0,0,0,0,0],"sum_hessian":[1.2841141E1,5.938432E0,6.9027085E0,2.2085407E0,3.7298915E0,4.048069E0,2.8546395E0,1.124129E0,1.0844116E0,1.3486071E0,2.3812845E0,1.2584529E0,2.789616E0,1.5198101E0,1.3348296E0,1.2513629E0,1.5382532E0],"tree_param":{"num_deleted":"0","num_feature":"7","num_nodes":"17","size_leaf_vector":"1"}},{"base_weights":[1.8326484E-2,-3.947703E-1,1.8165432E-1,-6.0130376E-2,5.4662707E-3,4.89403E-1,-4.1441694E-2,8.569791E-3,6.1624087E-2,-2.6173007E-1,3.177669E-1,-5.2096684E-2,-3.2364137E-3,-1.6778155E-3,5.00394E-2],"categories":[],"categories_nodes":[],"categories_segments":[],"categories_sizes":[],"default_left":[0,0,0,0,0,0,0,0,0,0,0,0,0,0,0],"id":66,"left_children":[1,3,5,-1,-1,7,9,-1,-1,11,13,-1,-1,-1,-1],"loss_changes":[9.680676E-1,4.115361E-1,7.2098327E-1,0E0,0E0,1.7081237E-1,6.2430036E-1,0E0,0E0,2.6779354E-1,1.9481719E-1,0E0,0E0,0E0,0E0],"parents":[2147483647,0,0,1,1,2,2,5,5,6,6,9,9,10,10],"right_children":[2,4,6,-1,-1,8,10,-1,-1,12,14,-1,-1,-1,-1],"split_conditions":[2.5E1,2.2E1,8E0,-6.0130376E-2,5.4662707E-3,1.65E3,4.9E1,8.569791E-3,6.1624087E-2,1.1E1,1.8E1,-5.2096684E-2,-3.2364137E-3,-1.6778155E-3,5.00394E-2],"split_indices":[3,6,5,0,0,2,4,0,0,1,6,0,0,0,0],"split_type":[0,0,0,0,0,0,0,0,0,0,0,0,0,0,0],"sum_hessian":[1.228521E1,3.079456E0,9.205753E0,1.8783557E0,1.2011003E0,3.3671994E0,5.838554E0,1.2056029E0,2.1615965E0,3.7873147E0,2.0512395E0,1.1810822E0,2.6062322E0,1.0450308E0,1.0062087E0],"tree_param":{"num_deleted":"0","num_feature":"7","num_nodes":"15","size_leaf_vector":"1"}},{"base_weights":[-1.1999072E-2,-1.346525E-1,3.2398394E-1,-1.24419145E-2,-5.8952183E-2,-8.296748E-3,5.4959383E-2,-2.4230266E-1,2.6701745E-1,1.4931197E-2,-3.831997E-2,-5.6289323E-3,4.0781148E-2],"categories":[],"categories_nodes":[],"categories_segments":[],"categories_sizes":[],"default_left":[0,0,0,0,0,0,0,0,0,0,0,0,0],"id":67,"left_children":[1,3,5,7,-1,-1,-1,9,11,-1,-1,-1,-1],"loss_changes":[6.0651726E-1,5.881873E-1,4.0793586E-1,6.727418E-1,0E0,0E0,0E0,3.727194E-1,2.3906782E-1,0E0,0E0,0E0,0E0],"parents":[2147483647,0,0,1,1,2,2,3,3,7,7,8,8],"right_children":[2,4,6,8,-1,-1,-1,10,12,-1,-1,-1,-1],"split_conditions":[3.7E1,2.8E1,1.7E1,1.2E1,-5.8952183E-2,-8.296748E-3,5.4959383E-2,3E0,1.5E1,1.4931197E-2,-3.831997E-2,-5.6289323E-3,4.0781148E-2],"split_indices":[3,5,6,1,0,0,0,5,6,0,0,0,0],"split_type":[0,0,0,0,0,0,0,0,0,0,0,0,0],"sum_hessian":[1.2659289E1,9.712784E0,2.9465053E0,8.465653E0,1.2471302E0,1.276403E0,1.6701024E0,4.717982E0,3.747672E0,1.2325267E0,3.485455E0,1.3190118E0,2.4286602E0],"tree_param":{"num_deleted":"0","num_feature":"7","num_nodes":"13","size_leaf_vector":"1"}},{"base_weights":[2.3896914E-2,2.70595E-1,-1.978049E-1,-1.0713792E-2,3.6027738E-1,-4.1299582E-1,9.579549E-2,5.4850634E-2,1.536889E-1,-1.4233333E-2,-4.9862355E-2,-1.9096067E-2,3.3852946E-2,-1.5158057E-2,5.568089E-2],"categories":[],"categories_nodes":[],"categories_segments":[],"categories_sizes":[],"default_left":[0,0,0,0,0,0,0,0,0,0,0,0,0,0,0],"id":68,"left_children":[1,3,5,-1,7,9,11,-1,13,-1,-1,-1,-1,-1,-1],"loss_changes":[8.09148E-1,2.7442586E-1,5.35789E-1,0E0,1.4337748E-1,3.843367E-2,3.5236645E-1,0E0,5.9887075E-1,0E0,0E0,0E0,0E0,0E0,0E0],"parents":[2147483647,0,0,1,1,2,2,4,4,5,5,6,6,8,8],"right_children":[2,4,6,-1,8,10,12,-1,14,-1,-1,-1,-1,-1,-1],"split_conditions":[8E0,1E1,1.2E1,-1.0713792E-2,2.2E2,1.7E1,4.3E1,5.4850634E-2,5.22E2,-1.4233333E-2,-4.9862355E-2,-1.9096067E-2,3.3852946E-2,-1.5158057E-2,5.568089E-2],"split_indices":[5,1,1,0,0,5,4,0,0,0,0,0,0,0,0],"split_type":[0,0,0,0,0,0,0,0,0,0,0,0,0,0,0],"sum_hessian":[1.2815611E1,5.9614673E0,6.854143E0,1.1064738E0,4.8549933E0,3.7205503E0,3.133593E0,1.6743635E0,3.18063E0,1.5339835E0,2.1865668E0,1.5343114E0,1.5992815E0,2.1650732E0,1.0155569E0],"tree_param":{"num_deleted":"0","num_feature":"7","num_nodes":"15","size_leaf_vector":"1"}},{"base_weights":[3.6628284E-2,-2.1076779E-1,2.3060545E-1,1.5007826E-2,-4.685497E-2,-1.1209964E-2,3.4359187E-1,-2.6610542E-2,2.4190193E-2,-6.853127E-3,4.4594455E-1,1.2493807E-2,6.408411E-2],"categories":[],"categories_nodes":[],"categories_segments":[],"categories_sizes":[],"default_left":[0,0,0,0,0,0,0,0,0,0,0,0,0],"id":69,"left_children":[1,3,5,7,-1,-1,9,-1,-1,-1,11,-1,-1],"loss_changes":[6.876923E-1,3.780769E-1,3.460422E-1,3.4294814E-1,0E0,0E0,2.9288554E-1,0E0,0E0,0E0,2.3993647E-1,0E0,0E0],"parents":[2147483647,0,0,1,1,2,2,3,3,6,6,10,10],"right_children":[2,4,6,8,-1,-1,10,-1,-1,-1,12,-1,-1],"split_conditions":[3.2E1,8E0,1.76E2,3E0,-4.685497E-2,-1.1209964E-2,1.62E3,-2.6610542E-2,2.4190193E-2,-6.853127E-3,3.6E1,1.2493807E-2,6.408411E-2],"split_indices":[3,5,0,5,0,0,2,0,0,0,3,0,0],"split_type":[0,0,0,0,0,0,0,0,0,0,0,0,0],"sum_hessian":[1.2317333E1,5.3752484E0,6.9420853E0,3.3675742E0,2.0076742E0,1.7232012E0,5.218884E0,1.4268917E0,1.9406826E0,1.1040133E0,4.1148705E0,2.1744566E0,1.940414E0],"tree_param":{"num_deleted":"0","num_feature":"7","num_nodes":"13","size_leaf_vector":"1"}},{"base_weights":[2.513062E-3,-2.3408122E-1,1.7737502E-1,-3.82391E-1,1.4379561E-2,2.1103268E-2,4.750488E-2,-6.438189E-2,-5.9406113E-2,-2.1971473E-1,2.3827782E-1,1.0666619E-2,-1.9708388E-2,-4.1771185E-2,2.7498628E-3,2.878017E-3,3.547023E-2],"categories":[],"categories_nodes":[],"categories_segments":[],"categories_sizes":[],"default_left":[0,0,0,0,0,0,0,0,0,0,0,0,0,0,0,0,0],"id":70,"left_children":[1,3,5,7,-1,9,-1,-1,11,13,15,-1,-1,-1,-1,-1,-1],"loss_changes":[5.994187E-1,4.003248E-1,3.7714863E-1,3.5848236E-1,0E0,3.925272E-1,0E0,0E0,9.426745E-2,1.8792015E-1,8.491011E-2,0E0,0E0,0E0,0E0,0E0,0E0],"parents":[2147483647,0,0,1,1,2,2,3,3,5,5,8,8,9,9,10,10],"right_children":[2,4,6,8,-1,10,-1,-1,12,14,16,-1,-1,-1,-1,-1,-1],"split_conditions":[1.1E1,4.69E2,2.1E1,3.2E1,1.4379561E-2,2.2E3,4.750488E-2,-6.438189E-2,2.1E2,3.4E1,1.5E1,1.0666619E-2,-1.9708388E-2,-4.1771185E-2,2.7498628E-3,2.878017E-3,3.547023E-2],"split_indices":[1,0,6,3,0,2,0,0,0,4,6,0,0,0,0,0,0],"split_type":[0,0,0,0,0,0,0,0,0,0,0,0,0,0,0,0,0],"sum_hessian":[1.2485146E1,5.16205E0,7.323096E0,3.698507E0,1.4635428E0,5.50434E0,1.8187555E0,1.4950527E0,2.2034545E0,2.6045456E0,2.8997946E0,1.1008335E0,1.102621E0,1.0632724E0,1.5412732E0,1.481371E0,1.4184235E0],"tree_param":{"num_deleted":"0","num_feature":"7","num_nodes":"17","size_leaf_vector":"1"}},{"base_weights":[3.293567E-2,-1.4258441E-1,2.7349555E-1,-4.435139E-2,2.738045E-2,2.3902478E-3,5.6870837E-2,-1.6362816E-1,2.4060461E-1,-2.384833E-2,2.5652094E-2,-3.6338165E-2,1.2640953E-2,2.274532E-3,3.5200085E-2],"categories":[],"categories_nodes":[],"categories_segments":[],"categories_sizes":[],"default_left":[0,0,0,0,0,0,0,0,0,0,0,0,0,0,0],"id":71,"left_children":[1,3,5,-1,7,9,-1,11,13,-1,-1,-1,-1,-1,-1],"loss_changes":[5.7942206E-1,4.2425525E-1,4.5819184E-1,0E0,2.874404E-1,3.0587143E-1,0E0,2.6655927E-1,7.166532E-2,0E0,0E0,0E0,0E0,0E0,0E0],"parents":[2147483647,0,0,1,1,2,2,4,4,5,5,7,7,8,8],"right_children":[2,4,6,-1,8,10,-1,12,14,-1,-1,-1,-1,-1,-1],"split_conditions":[3.4E1,1.5E1,4.9E1,-4.435139E-2,1.2E1,3.7E1,5.6870837E-2,4.6E1,2.4E1,-2.384833E-2,2.5652094E-2,-3.6338165E-2,1.2640953E-2,2.274532E-3,3.5200085E-2],"split_indices":[3,6,4,0,1,3,0,4,3,0,0,0,0,0,0],"split_type":[0,0,0,0,0,0,0,0,0,0,0,0,0,0,0],"sum_hessian":[1.1799294E1,7.0573273E0,4.741967E0,1.9663618E0,5.0909653E0,2.9974186E0,1.7445488E0,2.8080673E0,2.2828982E0,1.570458E0,1.4269605E0,1.5130966E0,1.2949706E0,1.1797762E0,1.103122E0],"tree_param":{"num_deleted":"0","num_feature":"7","num_nodes":"15","size_leaf_vector":"1"}},{"base_weights":[-5.7150077E-2,1.8263792E-1,-2.5519666E-1,-7.921132E-2,3.876242E-1,-4.573362E-1,9.079893E-2,-3.9945852E-2,2.7218474E-2,3.4324944E-3,5.4924842E-2,-7.193644E-2,2.1303878E-3,-1.5208204E-2,2.805819E-2],"categories":[],"categories_nodes":[],"categories_segments":[],"categories_sizes":[],"default_left":[0,0,0,0,0,0,0,0,0,0,0,0,0,0,0],"id":72,"left_children":[1,3,5,7,9,11,13,-1,-1,-1,-1,-1,-1,-1,-1],"loss_changes":[6.352555E-1,3.6293894E-1,5.454876E-1,5.0801826E-1,1.890825E-1,6.0654867E-1,2.0361762E-1,0E0,0E0,0E0,0E0,0E0,0E0,0E0,0E0],"parents":[2147483647,0,0,1,1,2,2,3,3,4,4,5,5,6,6],"right_children":[2,4,6,8,10,12,14,-1,-1,-1,-1,-1,-1,-1,-1],"split_conditions":[8E0,1.1E1,2.42E3,1.9E1,2.8E1,2.1E1,1.6E1,-3.9945852E-2,2.7218474E-2,3.4324944E-3,5.4924842E-2,-7.193644E-2,2.1303878E-3,-1.5208204E-2,2.805819E-2],"split_indices":[5,1,2,6,4,6,6,0,0,0,0,0,0,0,0],"split_type":[0,0,0,0,0,0,0,0,0,0,0,0,0,0,0],"sum_hessian":[1.1395387E1,5.189691E0,6.205696E0,2.5482001E0,2.6414907E0,3.714053E0,2.4916432E0,1.2616297E0,1.2865705E0,1.2096516E0,1.4318391E0,2.0751128E0,1.6389401E0,1.1800668E0,1.3115762E0],"tree_param":{"num_deleted":"0","num_feature":"7","num_nodes":"15","size_leaf_vector":"1"}},{"base_weights":[2.9531267E-2,2.3189838E-1,-1.5299325E-1,-1.24797765E-2,3.219672E-1,-3.5648954E-1,1.2931252E-1,2.8802836E-2,5.0120324E-2,-5.697425E-2,-1.3137355E-1,-1.3614337E-2,3.2903306E-2,-2.79686E-2,3.102133E-2,-2.9361544E-2,9.119532E-3],"categories":[],"categories_nodes":[],"categories_segments":[],"categories_sizes":[],"default_left":[0,0,0,0,0,0,0,0,0,0,0,0,0,0,0,0,0],"id":73,"left_children":[1,3,5,-1,7,9,11,13,-1,-1,15,-1,-1,-1,-1,-1,-1],"loss_changes":[5.1350224E-1,2.501225E-1,4.716112E-1,0E0,2.7438772E-1,1.4456177E-1,2.481938E-1,3.5991424E-1,0E0,0E0,1.5399393E-1,0E0,0E0,0E0,0E0,0E0,0E0],"parents":[2147483647,0,0,1,1,2,2,4,4,5,5,6,6,7,7,10,10],"right_children":[2,4,6,-1,8,10,12,14,-1,-1,16,-1,-1,-1,-1,-1,-1],"split_conditions":[8E0,8E0,1.2E1,-1.24797765E-2,2.5E1,1.7E1,4.3E1,2.1E1,5.0120324E-2,-5.697425E-2,3.6E1,-1.3614337E-2,3.2903306E-2,-2.79686E-2,3.102133E-2,-2.9361544E-2,9.119532E-3],"split_indices":[5,6,1,0,3,6,4,6,0,0,3,0,0,0,0,0,0],"split_type":[0,0,0,0,0,0,0,0,0,0,0,0,0,0,0,0,0],"sum_hessian":[1.1941599E1,5.5347023E0,6.406896E0,1.0380743E0,4.4966283E0,3.5704253E0,2.8364708E0,2.146477E0,2.350151E0,1.0473676E0,2.523058E0,1.3544939E0,1.481977E0,1.0268966E0,1.1195805E0,1.2746723E0,1.2483857E0],"tree_param":{"num_deleted":"0","num_feature":"7","num_nodes":"17","size_leaf_vector":"1"}},{"base_weights":[3.822792E-2,-1.5509892E-1,2.877467E-1,-3.671788E-1,1.3539805E-1,-1.166624E-2,4.292169E-1,6.9456897E-3,-5.3305533E-2,3.271507E-2,-1.1210807E-2,4.9549136E-2,1.3624293E-2],"categories":[],"categories_nodes":[],"categories_segments":[],"categories_sizes":[],"default_left":[0,0,0,0,0,0,0,0,0,0,0,0,0],"id":74,"left_children":[1,3,5,7,9,-1,11,-1,-1,-1,-1,-1,-1],"loss_changes":[6.2714577E-1,5.089307E-1,3.71716E-1,3.685829E-1,2.2062948E-1,0E0,1.7512381E-2,0E0,0E0,0E0,0E0,0E0,0E0],"parents":[2147483647,0,0,1,1,2,2,3,3,4,4,6,6],"right_children":[2,4,6,8,10,-1,12,-1,-1,-1,-1,-1,-1],"split_conditions":[3.4E1,1.2E1,1.62E3,3E0,8E0,-1.166624E-2,2.4E1,6.9456897E-3,-5.3305533E-2,3.271507E-2,-1.1210807E-2,4.9549136E-2,1.3624293E-2],"split_indices":[3,1,2,5,5,0,5,0,0,0,0,0,0],"split_type":[0,0,0,0,0,0,0,0,0,0,0,0,0],"sum_hessian":[1.1075717E1,6.4537597E0,4.6219573E0,3.5777924E0,2.875967E0,1.2432731E0,3.378684E0,1.1450248E0,2.4327679E0,1.4391855E0,1.4367816E0,2.1916566E0,1.1870276E0],"tree_param":{"num_deleted":"0","num_feature":"7","num_nodes":"13","size_leaf_vector":"1"}},{"base_weights":[-1.5857393E-2,-2.889405E-1,1.3214576E-1,-4.830708E-2,-6.0811563E-4,-2.386955E-2,2.6276475E-1,-1.5947005E-2,3.8336405E-1,4.9990542E-2,2.2776804E-3],"categories":[],"categories_nodes":[],"categories_segments":[],"categories_sizes":[],"default_left":[0,0,0,0,0,0,0,0,0,0,0],"id":75,"left_children":[1,3,5,-1,-1,-1,7,-1,9,-1,-1],"loss_changes":[5.2509695E-1,2.4680972E-1,4.7440565E-1,0E0,0E0,0E0,4.0542582E-1,0E0,2.2196507E-1,0E0,0E0],"parents":[2147483647,0,0,1,1,2,2,6,6,8,8],"right_children":[2,4,6,-1,-1,-1,8,-1,10,-1,-1],"split_conditions":[1.5E1,3.4E1,1E1,-4.830708E-2,-6.0811563E-4,-2.386955E-2,2E1,-1.5947005E-2,4.48E2,4.9990542E-2,2.2776804E-3],"split_indices":[6,3,1,0,0,0,3,0,0,0,0],"split_type":[0,0,0,0,0,0,0,0,0,0,0],"sum_hessian":[1.1047227E1,3.5481737E0,7.499053E0,1.6843605E0,1.863813E0,1.7378093E0,5.761244E0,1.2083457E0,4.5528984E0,3.1488342E0,1.404064E0],"tree_param":{"num_deleted":"0","num_feature":"7","num_nodes":"11","size_leaf_vector":"1"}},{"base_weights":[4.135895E-2,2.4751127E-1,-1.4207964E-1,-5.310142E-3,3.358686E-1,-3.2072836E-1,1.3037124E-1,-2.296441E-3,4.3438143E-1,-6.5559015E-2,5.5306178E-2,-1.4625167E-2,3.301495E-2,1.618647E-2,5.2463125E-2,-1.4499443E-2,2.4056833E-2],"categories":[],"categories_nodes":[],"categories_segments":[],"categories_sizes":[],"default_left":[0,0,0,0,0,0,0,0,0,0,0,0,0,0,0,0,0],"id":76,"left_children":[1,3,5,-1,7,9,11,-1,13,-1,15,-1,-1,-1,-1,-1,-1],"loss_changes":[5.192487E-1,1.8761459E-1,4.0242788E-1,0E0,1.8942833E-1,6.3611054E-1,2.4972719E-1,0E0,1.4276624E-2,0E0,1.523705E-1,0E0,0E0,0E0,0E0,0E0,0E0],"parents":[2147483647,0,0,1,1,2,2,4,4,5,5,6,6,8,8,10,10],"right_children":[2,4,6,-1,8,10,12,-1,14,-1,16,-1,-1,-1,-1,-1,-1],"split_conditions":[8E0,2E1,2E1,-5.310142E-3,9E0,2.42E3,1.1E1,-2.296441E-3,2.8E1,-6.5559015E-2,1.6E1,-1.4625167E-2,3.301495E-2,1.618647E-2,5.2463125E-2,-1.4499443E-2,2.4056833E-2],"split_indices":[5,3,6,0,6,2,1,0,4,0,6,0,0,0,0,0,0],"split_type":[0,0,0,0,0,0,0,0,0,0,0,0,0,0,0,0,0],"sum_hessian":[1.1800896E1,5.3919816E0,6.408914E0,1.3154664E0,4.076515E0,3.7637737E0,2.6451406E0,1.0432751E0,3.03324E0,1.5976356E0,2.166138E0,1.2215928E0,1.4235479E0,1.4495932E0,1.5836469E0,1.1452639E0,1.020874E0],"tree_param":{"num_deleted":"0","num_feature":"7","num_nodes":"17","size_leaf_vector":"1"}},{"base_weights":[1.3933097E-2,-3.991055E-2,1.3320665E-1,-1.0703734E-1,2.7041396E-1,-3.4179192E-2,1.4304705E-2,-3.6218339E-3,3.6423767E-1,1.2833609E-2,4.3052E-2],"categories":[],"categories_nodes":[],"categories_segments":[],"categories_sizes":[],"default_left":[0,0,0,0,0,0,0,0,0,0,0],"id":77,"left_children":[1,-1,3,5,7,-1,-1,-1,9,-1,-1],"loss_changes":[6.3555104E-1,0E0,3.560238E-1,3.027105E-1,2.0304647E-1,0E0,0E0,0E0,2.517283E-2,0E0,0E0],"parents":[2147483647,0,0,2,2,3,3,4,4,8,8],"right_children":[2,-1,4,6,8,-1,-1,-1,10,-1,-1],"split_conditions":[1E1,-3.991055E-2,1.5E1,3.4E1,2.2E1,-3.4179192E-2,1.4304705E-2,-3.6218339E-3,1.8E1,1.2833609E-2,4.3052E-2],"split_indices":[1,0,6,3,3,0,0,0,6,0,0],"split_type":[0,0,0,0,0,0,0,0,0,0,0],"sum_hessian":[1.082163E1,1.8990778E0,8.922551E0,3.3233674E0,5.599184E0,1.525073E0,1.7982943E0,1.4556942E0,4.14349E0,1.5528905E0,2.5905993E0],"tree_param":{"num_deleted":"0","num_feature":"7","num_nodes":"11","size_leaf_vector":"1"}},{"base_weights":[-5.2959025E-2,2.2028619E-1,-2.8912535E-1,5.1893692E-2,-3.9526727E-2,-5.5945612E-2,2.8523324E-2,-3.9555535E-2,3.3653863E-2,-1.7027622E-2,2.7808115E-2],"categories":[],"categories_nodes":[],"categories_segments":[],"categories_sizes":[],"default_left":[0,0,0,0,0,0,0,0,0,0,0],"id":78,"left_children":[1,3,5,-1,7,-1,9,-1,-1,-1,-1],"loss_changes":[7.969701E-1,4.7331533E-1,5.7648075E-1,0E0,6.7536587E-1,0E0,2.4344775E-1,0E0,0E0,0E0,0E0],"parents":[2147483647,0,0,1,1,2,2,4,4,6,6],"right_children":[2,4,6,-1,8,-1,10,-1,-1,-1,-1],"split_conditions":[8E0,2.2E2,1.2E1,5.1893692E-2,4.59E2,-5.5945612E-2,3.92E2,-3.9555535E-2,3.3653863E-2,-1.7027622E-2,2.7808115E-2],"split_indices":[5,0,1,0,0,0,0,0,0,0,0],"split_type":[0,0,0,0,0,0,0,0,0,0,0],"sum_hessian":[1.0363161E1,4.8355985E0,5.527562E0,1.7856613E0,3.0499372E0,2.5749462E0,2.9526162E0,1.5400833E0,1.5098538E0,1.8202668E0,1.1323494E0],"tree_param":{"num_deleted":"0","num_feature":"7","num_nodes":"11","size_leaf_vector":"1"}},{"base_weights":[3.3493795E-2,-3.3558138E-2,1.4508514E-1,-1.3315263E-1,2.5387672E-1,8.840817E-3,-3.1164676E-2,8.68976E-2,5.1731985E-2,3.25054E-2,-1.7385185E-2],"categories":[],"categories_nodes":[],"categories_segments":[],"categories_sizes":[],"default_left":[0,0,0,0,0,0,0,0,0,0,0],"id":79,"left_children":[1,-1,3,5,7,-1,-1,9,-1,-1,-1],"loss_changes":[5.1636016E-1,0E0,3.1886137E-1,1.581797E-1,2.6799187E-1,0E0,0E0,4.0154198E-1,0E0,0E0,0E0],"parents":[2147483647,0,0,2,2,3,3,4,4,7,7],"right_children":[2,-1,4,6,8,-1,-1,10,-1,-1,-1],"split_conditions":[2.2E1,-3.3558138E-2,1.8E3,1E1,3.6E1,8.840817E-3,-3.1164676E-2,3.01E2,5.1731985E-2,3.25054E-2,-1.7385185E-2],"split_indices":[3,0,2,5,3,0,0,0,0,0,0],"split_type":[0,0,0,0,0,0,0,0,0,0,0],"sum_hessian":[1.035524E1,1.9380696E0,8.417171E0,2.3030713E0,6.1140995E0,1.2527546E0,1.0503167E0,4.5561266E0,1.5579728E0,2.2523346E0,2.303792E0],"tree_param":{"num_deleted":"0","num_feature":"7","num_nodes":"11","size_leaf_vector":"1"}},{"base_weights":[2.9720943E-2,1.3081829E-1,-4.6546593E-2,-1.3742706E-1,3.3196843E-1,-3.8747605E-2,1.9661136E-2,-1.2879354E-2,4.7510064E-1,6.471012E-2,1.8129177E-2],"categories":[],"categories_nodes":[],"categories_segments":[],"categories_sizes":[],"default_left":[0,0,0,0,0,0,0,0,0,0,0],"id":80,"left_children":[1,3,-1,5,7,-1,-1,-1,9,-1,-1],"loss_changes":[6.10119E-1,5.793412E-1,0E0,4.8930314E-1,4.532916E-1,0E0,0E0,0E0,1.22706175E-1,0E0,0E0],"parents":[2147483647,0,0,1,1,3,3,4,4,8,8],"right_children":[2,4,-1,6,8,-1,-1,-1,10,-1,-1],"split_conditions":[2.8E1,3.2E1,-4.6546593E-2,1.2E1,1E1,-3.8747605E-2,1.9661136E-2,-1.2879354E-2,3.33E2,6.471012E-2,1.8129177E-2],"split_indices":[5,3,0,1,6,0,0,0,0,0,0],"split_type":[0,0,0,0,0,0,0,0,0,0,0],"sum_hessian":[9.970929E0,8.891467E0,1.0794617E0,3.9460177E0,4.94545E0,2.1652308E0,1.7807871E0,1.1958913E0,3.7495582E0,1.6065824E0,2.1429758E0],"tree_param":{"num_deleted":"0","num_feature":"7","num_nodes":"11","size_leaf_vector":"1"}},{"base_weights":[-5.3387627E-2,-3.9898273E-2,5.673354E-2,-9.963719E-2,3.5552582E-1,-3.2793045E-2,9.938164E-2,1.1682794E-2,4.263817E-2,3.1986255E-2,-8.623141E-3],"categories":[],"categories_nodes":[],"categories_segments":[],"categories_sizes":[],"default_left":[0,0,0,0,0,0,0,0,0,0,0],"id":81,"left_children":[1,-1,3,5,7,-1,9,-1,-1,-1,-1],